<?xml version="1.0"?>
<opencv_storage>
<cascade>
  <stageType>BOOST</stageType>
  <featureType>LBP</featureType>
  <height>32</height>
  <width>24</width>
  <stageParams>
    <boostType>GAB</boostType>
    <minHitRate>9.9500000476837158e-001</minHitRate>
    <maxFalseAlarm>5.0000000000000000e-001</maxFalseAlarm>
    <weightTrimRate>9.4999998807907104e-001</weightTrimRate>
    <maxDepth>1</maxDepth>
    <maxWeakCount>100</maxWeakCount></stageParams>
  <featureParams>
    <maxCatCount>256</maxCatCount>
    <featSize>1</featSize></featureParams>
  <stageNum>13</stageNum>
  <stages>
    <!-- stage 0 -->
    <_>
      <maxWeakCount>6</maxWeakCount>
      <stageThreshold>-1.6941670179367065e+000</stageThreshold>
      <weakClassifiers>
        <_>
          <internalNodes>
            0 -1 131 -241 -69207169 -285737210 -201326593 -16825088
            2101346063 -285218816 -1</internalNodes>
          <leafValues>
            -7.3695290088653564e-001 4.4848871231079102e-001</leafValues></_>
        <_>
          <internalNodes>
            0 -1 10 -365764094 35661322 -228927936 35783168 -646328714
            1868944346 -134488101 -1</internalNodes>
          <leafValues>
            -6.7429047822952271e-001 4.4740203022956848e-001</leafValues></_>
        <_>
          <internalNodes>
            0 -1 59 -319902716 -21319897 -52510755 -1090602305
            -268454060 -3113 -304091460 -269500753</internalNodes>
          <leafValues>
            -6.4558184146881104e-001 3.8572290539741516e-001</leafValues></_>
        <_>
          <internalNodes>
            0 -1 140 -135270617 -488114193 -1361078430 -353374590
            -134744573 1247729557 -521669052 -453511438</internalNodes>
          <leafValues>
            -6.0693973302841187e-001 4.1156572103500366e-001</leafValues></_>
        <_>
          <internalNodes>
            0 -1 13 -294916177 -420548626 -294129918 -421335326
            -16814217 125196925 -134744586 -671090769</internalNodes>
          <leafValues>
            -5.0005668401718140e-001 4.3605732917785645e-001</leafValues></_>
        <_>
          <internalNodes>
            0 -1 101 251594295 1962881023 -524289 -8388745 -536905865
            -82945 -4194595 -1379145</internalNodes>
          <leafValues>
            -4.8496484756469727e-001 4.5730492472648621e-001</leafValues></_></weakClassifiers></_>
    <!-- stage 1 -->
    <_>
      <maxWeakCount>7</maxWeakCount>
      <stageThreshold>-1.7863020896911621e+000</stageThreshold>
      <weakClassifiers>
        <_>
          <internalNodes>
            0 -1 109 -241 2139094911 -2105345 2080374783 -129 -8389761
            -257 -1048577</internalNodes>
          <leafValues>
            -6.9818449020385742e-001 3.8413685560226440e-001</leafValues></_>
        <_>
          <internalNodes>
            0 -1 19 -286265681 -923867154 -1493176664 -488461686
            2139055991 1677688699 -201329153 -1</internalNodes>
          <leafValues>
            -5.9277975559234619e-001 4.3429380655288696e-001</leafValues></_>
        <_>
          <internalNodes>
            0 -1 120 -856964096 -960477620 -2010321720 -296554529
            -1862595552 -560516129 -2002090960 -357564737</internalNodes>
          <leafValues>
            -5.9024930000305176e-001 4.1678392887115479e-001</leafValues></_>
        <_>
          <internalNodes>
            0 -1 33 -1360023633 -1358954497 -134217729 -65795 1342172927
            134085631 1610612735 -671090689</internalNodes>
          <leafValues>
            -4.8859435319900513e-001 4.2819890379905701e-001</leafValues></_>
        <_>
          <internalNodes>
            0 -1 24 -293607697 -360710169 -19420434 -525668698
            2063597335 1461681968 -407562410 -218628101</internalNodes>
          <leafValues>
            -4.4836005568504333e-001 4.3088322877883911e-001</leafValues></_>
        <_>
          <internalNodes>
            0 -1 95 -8388611 -100728836 -33554433 -8979459 -135171
            -1065153 -8396804 -488260</internalNodes>
          <leafValues>
            -3.7795677781105042e-001 5.1227301359176636e-001</leafValues></_>
        <_>
          <internalNodes>
            0 -1 6 -353900645 1718545570 2071986044 -138956511 183498231
            251592703 1174378215 -856701451</internalNodes>
          <leafValues>
            -3.6487933993339539e-001 4.9302941560745239e-001</leafValues></_></weakClassifiers></_>
    <!-- stage 2 -->
    <_>
      <maxWeakCount>8</maxWeakCount>
      <stageThreshold>-2.0475325584411621e+000</stageThreshold>
      <weakClassifiers>
        <_>
          <internalNodes>
            0 -1 42 -8442065 -5242961 -2113537 -129 -2113537 -1089
            -70255617 -16777217</internalNodes>
          <leafValues>
            -6.9437277317047119e-001 3.4443601965904236e-001</leafValues></_>
        <_>
          <internalNodes>
            0 -1 130 -241 -2097297 -562298885 -227016961 -536912640
            -25167073 -16782328 -8650881</internalNodes>
          <leafValues>
            -4.6381577849388123e-001 4.7217541933059692e-001</leafValues></_>
        <_>
          <internalNodes>
            0 -1 53 -799737136 -717911059 4461077 -774526721 -2769989
            -34603265 -169366869 -1210602833</internalNodes>
          <leafValues>
            -4.5376056432723999e-001 4.5788758993148804e-001</leafValues></_>
        <_>
          <internalNodes>
            0 -1 34 -1431589893 -1427203335 -1644167171 -168971
            247463935 -1896941832 65005567 -805317163</internalNodes>
          <leafValues>
            -4.0728569030761719e-001 4.6801143884658813e-001</leafValues></_>
        <_>
          <internalNodes>
            0 -1 96 779823935 50264955 -16777217 1988034495 -444629385
            -268435585 -142622985 -11013691</internalNodes>
          <leafValues>
            -4.9707782268524170e-001 3.5190910100936890e-001</leafValues></_>
        <_>
          <internalNodes>
            0 -1 28 -352326913 1962934015 2029976318 -1595740546
            1583330390 -8421513 -285214992 -186123273</internalNodes>
          <leafValues>
            -4.4611692428588867e-001 3.8854727149009705e-001</leafValues></_>
        <_>
          <internalNodes>
            0 -1 137 -8409 -1968441745 -524704 -16793601 2147480084
            813168639 -520526624 -150994977</internalNodes>
          <leafValues>
            -4.3333378434181213e-001 3.8381546735763550e-001</leafValues></_>
        <_>
          <internalNodes>
            0 -1 98 -1747484683 989085118 2147483645 -1208075268
            -1073741831 -1358954630 -1342260228 -1629958980</internalNodes>
          <leafValues>
            -4.0490967035293579e-001 4.1417056322097778e-001</leafValues></_></weakClassifiers></_>
    <!-- stage 3 -->
    <_>
      <maxWeakCount>8</maxWeakCount>
      <stageThreshold>-1.4384529590606689e+000</stageThreshold>
      <weakClassifiers>
        <_>
          <internalNodes>
            0 -1 4 -269488129 -285212673 -2097153 -1 -805307393
            -805306373 -536870913 -536872961</internalNodes>
          <leafValues>
            -6.5948337316513062e-001 3.3127668499946594e-001</leafValues></_>
        <_>
          <internalNodes>
            0 -1 110 -2097361 2137522175 -2097153 1988099071 -4736137
            2139090815 -257 -262145</internalNodes>
          <leafValues>
            -5.0664520263671875e-001 3.8627699017524719e-001</leafValues></_>
        <_>
          <internalNodes>
            0 -1 21 -285216785 -889229329 -385941786 -1058379190
            -134744233 897056566 -134219789 -218104097</internalNodes>
          <leafValues>
            -4.9081069231033325e-001 3.8982203602790833e-001</leafValues></_>
        <_>
          <internalNodes>
            0 -1 52 -254745968 -33715041 1347726261 1979132838
            -235556929 -1073872897 -470310229 -1276663157</internalNodes>
          <leafValues>
            -4.4984161853790283e-001 3.8365569710731506e-001</leafValues></_>
        <_>
          <internalNodes>
            0 -1 142 -34603225 -827392059 -1410339294 -290521362 -4346
            1338507095 -1252527104 -152043529</internalNodes>
          <leafValues>
            -4.7708317637443542e-001 3.6336880922317505e-001</leafValues></_>
        <_>
          <internalNodes>
            0 -1 71 -218761988 -1611091969 -256401161 2041490175
            -572678223 -524545 1039409832 732897962</internalNodes>
          <leafValues>
            -4.8709636926651001e-001 3.2128736376762390e-001</leafValues></_>
        <_>
          <internalNodes>
            0 -1 80 788470839 -1078002949 1610577919 -3951361 -537395201
            -1114118 -134238210 -201221</internalNodes>
          <leafValues>
            -3.3126589655876160e-001 4.4910892844200134e-001</leafValues></_>
        <_>
          <internalNodes>
            0 -1 8 -286266461 -420565142 -382207261 -378032460
            1336668158 267218943 1171772658 -939533136</internalNodes>
          <leafValues>
            -4.0901374816894531e-001 3.7501490116119385e-001</leafValues></_></weakClassifiers></_>
    <!-- stage 4 -->
    <_>
      <maxWeakCount>10</maxWeakCount>
      <stageThreshold>-2.0295631885528564e+000</stageThreshold>
      <weakClassifiers>
        <_>
          <internalNodes>
            0 -1 107 -1342226561 -8390657 -1 -1 -1 -294913 -1025 -327682</internalNodes>
          <leafValues>
            -6.7540144920349121e-001 2.3744244873523712e-001</leafValues></_>
        <_>
          <internalNodes>
            0 -1 87 -319356931 -90373 2147417087 -65667 -1073667 -66049
            -1090519043 -459528</internalNodes>
          <leafValues>
            -4.1659626364707947e-001 4.3578463792800903e-001</leafValues></_>
        <_>
          <internalNodes>
            0 -1 43 -1360019653 -1360609296 -1174437897 -33751818
            -1348480001 -1888550913 1342174975 -838863660</internalNodes>
          <leafValues>
            -4.2447486519813538e-001 4.0959882736206055e-001</leafValues></_>
        <_>
          <internalNodes>
            0 -1 46 -178921996 286389552 -38113351 831365609 -178979843
            -13510796 -33948225 1001077047</internalNodes>
          <leafValues>
            -4.6538358926773071e-001 3.4751936793327332e-001</leafValues></_>
        <_>
          <internalNodes>
            0 -1 144 -268439801 -428867601 -1331230 -68157522 2147469095
            -808452529 -168299360 -218103821</internalNodes>
          <leafValues>
            -4.0850099921226501e-001 3.9109390974044800e-001</leafValues></_>
        <_>
          <internalNodes>
            0 -1 29 -8392705 -527713 -353902914 -266146198 -184551851
            -25243827 -150994961 -263717033</internalNodes>
          <leafValues>
            -3.2865682244300842e-001 4.6001502871513367e-001</leafValues></_>
        <_>
          <internalNodes>
            0 -1 118 -67375345 2069360435 2147483647 842530681
            -138412284 2139092826 -294191656 -296485025</internalNodes>
          <leafValues>
            -3.6392444372177124e-001 4.1957524418830872e-001</leafValues></_>
        <_>
          <internalNodes>
            0 -1 57 -1431126479 -1360068619 -570425345 -402850053
            -1879130116 -1119233 -335544835 -1929459972</internalNodes>
          <leafValues>
            -4.8798784613609314e-001 2.9501760005950928e-001</leafValues></_>
        <_>
          <internalNodes>
            0 -1 14 -269490449 1860366318 -16784134 1860881522
            -429916405 -286786009 -1276120077 -941108877</internalNodes>
          <leafValues>
            -4.7950565814971924e-001 2.8237256407737732e-001</leafValues></_>
        <_>
          <internalNodes>
            0 -1 66 -132252774 -584202034 -732893516 1561718506
            -296552530 -4097 2130833762 -640424310</internalNodes>
          <leafValues>
            -3.7463459372520447e-001 3.8465070724487305e-001</leafValues></_></weakClassifiers></_>
    <!-- stage 5 -->
    <_>
      <maxWeakCount>10</maxWeakCount>
      <stageThreshold>-2.0161199569702148e+000</stageThreshold>
      <weakClassifiers>
        <_>
          <internalNodes>
            0 -1 73 -1359004801 -8193 -8389635 -131073 -5 -269746177
            -4194305 -1</internalNodes>
          <leafValues>
            -6.6111814975738525e-001 1.9180443882942200e-001</leafValues></_>
        <_>
          <internalNodes>
            0 -1 119 -1359018369 -1183056033 -84149249 -143130629
            -558223 -2130116 -553648135 -79495169</internalNodes>
          <leafValues>
            -4.7328618168830872e-001 3.6329823732376099e-001</leafValues></_>
        <_>
          <internalNodes>
            0 -1 38 2136342519 827632435 -4198465 964830890 -17305601
            -8912905 -551705681 1035841451</internalNodes>
          <leafValues>
            -3.9558073878288269e-001 4.1086363792419434e-001</leafValues></_>
        <_>
          <internalNodes>
            0 -1 136 -270536921 -1882210305 1862270752 -153092865 -3324
            362148823 -687873616 -33</internalNodes>
          <leafValues>
            -4.3329864740371704e-001 3.7416493892669678e-001</leafValues></_>
        <_>
          <internalNodes>
            0 -1 83 -194707970 -587932418 -1390032899 -34624537
            -799793678 -588471617 -2145177937 1321144063</internalNodes>
          <leafValues>
            -3.7737330794334412e-001 3.9880791306495667e-001</leafValues></_>
        <_>
          <internalNodes>
            0 -1 99 -2057 929365496 -805306404 -1074857986 -16463
            -1399848972 1845224688 -855902980</internalNodes>
          <leafValues>
            -3.8592451810836792e-001 3.6573299765586853e-001</leafValues></_>
        <_>
          <internalNodes>
            0 -1 37 -268437761 -486541573 -822083841 -252510466
            -33581555 -27361492 -143393080 -186188298</internalNodes>
          <leafValues>
            -3.4071868658065796e-001 3.9441198110580444e-001</leafValues></_>
        <_>
          <internalNodes>
            0 -1 103 775619605 -1359005697 -201589505 -1900101641
            -88639952 -201492009 -1610614927 -318998540</internalNodes>
          <leafValues>
            -5.8041268587112427e-001 2.3844401538372040e-001</leafValues></_>
        <_>
          <internalNodes>
            0 -1 9 -268439573 -823132310 671081394 -35328302 1714396143
            1312617877 1734341623 -536873545</internalNodes>
          <leafValues>
            -3.3761581778526306e-001 3.9195901155471802e-001</leafValues></_>
        <_>
          <internalNodes>
            0 -1 44 -1347436749 784269241 -135301259 -19073820
            -268510521 -831534615 -746858571 -597895857</internalNodes>
          <leafValues>
            -4.0899920463562012e-001 2.9742944240570068e-001</leafValues></_></weakClassifiers></_>
    <!-- stage 6 -->
    <_>
      <maxWeakCount>11</maxWeakCount>
      <stageThreshold>-1.7957495450973511e+000</stageThreshold>
      <weakClassifiers>
        <_>
          <internalNodes>
            0 -1 115 -5242949 -4194337 -1895825665 -1073742849
            -1077965139 -17409 212806843 -1073741825</internalNodes>
          <leafValues>
            -6.0867410898208618e-001 2.3063063621520996e-001</leafValues></_>
        <_>
          <internalNodes>
            0 -1 11 -353374549 -2105364982 -1612929025 -1414885854
            -814450497 208891123 -956434441 -981480001</internalNodes>
          <leafValues>
            -4.5722052454948425e-001 3.0873864889144897e-001</leafValues></_>
        <_>
          <internalNodes>
            0 -1 133 -33558769 -738459681 -153354718 -201853057
            -671091452 1845981997 -19144032 -202637313</internalNodes>
          <leafValues>
            -3.8487407565116882e-001 3.6251229047775269e-001</leafValues></_>
        <_>
          <internalNodes>
            0 -1 72 -199954184 1440067546 -1060888041 1979657903
            905221055 -572915969 -529161557 965681803</internalNodes>
          <leafValues>
            -4.2151114344596863e-001 3.3437022566795349e-001</leafValues></_>
        <_>
          <internalNodes>
            0 -1 26 -352334213 -163603374 -51904876 -1334649474 -1585596
            -142642379 -553656610 -25952257</internalNodes>
          <leafValues>
            -2.8434616327285767e-001 4.3456146121025085e-001</leafValues></_>
        <_>
          <internalNodes>
            0 -1 68 -658310148 -755830788 -38601233 -547164209
            -758084140 -51327506 -672989282 -812427989</internalNodes>
          <leafValues>
            -3.3490929007530212e-001 3.7552598118782043e-001</leafValues></_>
        <_>
          <internalNodes>
            0 -1 39 1480914704 829470104 -19231297 -1209176134
            1433710420 -63574636 2138564351 401026207</internalNodes>
          <leafValues>
            -4.8514625430107117e-001 2.5971034169197083e-001</leafValues></_>
        <_>
          <internalNodes>
            0 -1 122 -204734702 111868726 1073083888 -1416693080
            -624951326 -1119945031 -255642400 -856686637</internalNodes>
          <leafValues>
            -4.1190418601036072e-001 2.8837326169013977e-001</leafValues></_>
        <_>
          <internalNodes>
            0 -1 58 15082240 -1359036481 -272793731 -855740590
            -780292099 -855769157 -756093116 -1997865746</internalNodes>
          <leafValues>
            -6.5695899724960327e-001 1.8491485714912415e-001</leafValues></_>
        <_>
          <internalNodes>
            0 -1 36 -293884345 -218681425 -287322124 -218169730
            1694172167 1597938475 -1107476969 -212347052</internalNodes>
          <leafValues>
            -4.2441433668136597e-001 2.3238380253314972e-001</leafValues></_>
        <_>
          <internalNodes>
            0 -1 128 -134223089 1971318783 -1531248641 41926623 -58352
            1920692031 -360740630 -96993345</internalNodes>
          <leafValues>
            -2.9077905416488647e-001 3.6647608876228333e-001</leafValues></_></weakClassifiers></_>
    <!-- stage 7 -->
    <_>
      <maxWeakCount>12</maxWeakCount>
      <stageThreshold>-1.9279917478561401e+000</stageThreshold>
      <weakClassifiers>
        <_>
          <internalNodes>
            0 -1 90 -771883265 -133635 -1145196545 -2097667 -586217307
            -1 99422351 2147483647</internalNodes>
          <leafValues>
            -6.3831865787506104e-001 9.0141117572784424e-002</leafValues></_>
        <_>
          <internalNodes>
            0 -1 49 -151001361 -83899030 -25280514 -266143842 -152052646
            -327976065 -405536796 -132972720</internalNodes>
          <leafValues>
            -4.6249029040336609e-001 2.5541508197784424e-001</leafValues></_>
        <_>
          <internalNodes>
            0 -1 2 -1968525653 1068175001 -8429573 1073161607 707321784
            -1348684869 90700799 264750583</internalNodes>
          <leafValues>
            -5.0157129764556885e-001 2.4960294365882874e-001</leafValues></_>
        <_>
          <internalNodes>
            0 -1 55 1435561456 1374810108 1800440449 368413413
            2144853935 -582619279 -2633841 231540751</internalNodes>
          <leafValues>
            -4.3142145872116089e-001 2.7788802981376648e-001</leafValues></_>
        <_>
          <internalNodes>
            0 -1 129 -202649813 -640684553 -145818946 -759169825
            -212339452 1215560277 -134381808 -210239617</internalNodes>
          <leafValues>
            -4.3635210394859314e-001 2.8992155194282532e-001</leafValues></_>
        <_>
          <internalNodes>
            0 -1 104 -330498384 -1065549842 -1952137476 258995710
            -36325719 -53551115 749879179 226492335</internalNodes>
          <leafValues>
            -4.4695374369621277e-001 2.7401891350746155e-001</leafValues></_>
        <_>
          <internalNodes>
            0 -1 3 -872419353 -806438742 -738328670 -6029455 1333087230
            167770621 1164829905 1375728885</internalNodes>
          <leafValues>
            -4.4146987795829773e-001 2.5513377785682678e-001</leafValues></_>
        <_>
          <internalNodes>
            0 -1 108 -1367728843 -163841 -33687555 -37859361 -269713923
            -1078101252 -17006723 -1124106631</internalNodes>
          <leafValues>
            -4.8392820358276367e-001 2.3070549964904785e-001</leafValues></_>
        <_>
          <internalNodes>
            0 -1 62 2126389245 -71648644 -71303681 -18973456 2147434493
            -263429 -1073774593 715656288</internalNodes>
          <leafValues>
            -5.5165165662765503e-001 1.7322649061679840e-001</leafValues></_>
        <_>
          <internalNodes>
            0 -1 139 -956305661 1208890159 -1195966700 1893989862
            938974976 390593399 1725949568 -453510225</internalNodes>
          <leafValues>
            -4.5473879575729370e-001 2.4562767148017883e-001</leafValues></_>
        <_>
          <internalNodes>
            0 -1 106 -20990541 -1079067206 -536871497 -1241579532
            -1208221759 -1351813641 266335485 -1915054856</internalNodes>
          <leafValues>
            -3.1865808367729187e-001 3.3922776579856873e-001</leafValues></_>
        <_>
          <internalNodes>
            0 -1 23 -285216945 -433344897 -1496355235 1891683974
            -344754423 2120735615 -210374658 -260835361</internalNodes>
          <leafValues>
            -3.4162217378616333e-001 3.3151176571846008e-001</leafValues></_></weakClassifiers></_>
    <!-- stage 8 -->
    <_>
      <maxWeakCount>13</maxWeakCount>
      <stageThreshold>-1.8888506889343262e+000</stageThreshold>
      <weakClassifiers>
        <_>
          <internalNodes>
            0 -1 82 -590479361 -570576897 696049663 2080041663
            1435799295 -16777217 98764417 1541997295</internalNodes>
          <leafValues>
            -6.8056923151016235e-001 -5.7898692786693573e-002</leafValues></_>
        <_>
          <internalNodes>
            0 -1 117 -4577 -8556961 -2633985 1468003391 -1048801
            -8913537 -1357123845 -94634145</internalNodes>
          <leafValues>
            -3.5800665616989136e-001 3.4731969237327576e-001</leafValues></_>
        <_>
          <internalNodes>
            0 -1 76 -285816833 -16867841 -16909313 -75866641 -604246084
            -17080833 -21037576 -12964232</internalNodes>
          <leafValues>
            -3.0138447880744934e-001 3.9455232024192810e-001</leafValues></_>
        <_>
          <internalNodes>
            0 -1 18 -420499801 -1899058518 -353208821 -530445278
            1844926335 258931414 -134515461 -67113041</internalNodes>
          <leafValues>
            -3.9971780776977539e-001 2.9597994685173035e-001</leafValues></_>
        <_>
          <internalNodes>
            0 -1 35 1489305040 -1184888320 -221193 153684739 2098585552
            -103285762 -1295585 735522619</internalNodes>
          <leafValues>
            -4.4333174824714661e-001 2.6770198345184326e-001</leafValues></_>
        <_>
          <internalNodes>
            0 -1 111 -637544494 -2100756574 -788672448 -1060309312
            -273171525 -860816565 -572566400 -1060377149</internalNodes>
          <leafValues>
            -4.2977896332740784e-001 2.5421771407127380e-001</leafValues></_>
        <_>
          <internalNodes>
            0 -1 1 -277884929 -1593630 -33849739 1539301155 179827903
            -1342193665 63293691 -838871627</internalNodes>
          <leafValues>
            -2.6051464676856995e-001 4.0940144658088684e-001</leafValues></_>
        <_>
          <internalNodes>
            0 -1 88 82782007 -8445954 -566385697 -33595779 -1895833669
            -1610613775 -541065265 -539043329</internalNodes>
          <leafValues>
            -3.4120979905128479e-001 3.1208345293998718e-001</leafValues></_>
        <_>
          <internalNodes>
            0 -1 64 -1341086984 365863663 809476282 669952686 732551081
            -1074413633 870523784 7217802</internalNodes>
          <leafValues>
            -5.7206988334655762e-001 1.7771734297275543e-001</leafValues></_>
        <_>
          <internalNodes>
            0 -1 141 -3690701 -1385189442 -1397772704 -1398414107
            -807950557 390329147 -2055847504 -1930446861</internalNodes>
          <leafValues>
            -3.9113828539848328e-001 2.4866200983524323e-001</leafValues></_>
        <_>
          <internalNodes>
            0 -1 94 -1003424332 951909424 -45170819 -1111558164
            1858263025 -1099368784 -1640002115 -1091355537</internalNodes>
          <leafValues>
            -3.4069240093231201e-001 3.1568950414657593e-001</leafValues></_>
        <_>
          <internalNodes>
            0 -1 25 -285217233 1853354847 -822153670 1886844286
            1660909323 2088228733 -722513206 -194512001</internalNodes>
          <leafValues>
            -4.0378001332283020e-001 2.4639336764812469e-001</leafValues></_>
        <_>
          <internalNodes>
            0 -1 78 -800264716 1911874412 2113776507 -581128564
            -1267695665 -51003914 1997945883 1580280366</internalNodes>
          <leafValues>
            -4.0970367193222046e-001 2.3414587974548340e-001</leafValues></_></weakClassifiers></_>
    <!-- stage 9 -->
    <_>
      <maxWeakCount>13</maxWeakCount>
      <stageThreshold>-1.7955849170684814e+000</stageThreshold>
      <weakClassifiers>
        <_>
          <internalNodes>
            0 -1 134 -497 -2099217 -1358993758 -201852993 -73421298
            2104486780 -285242738 -2097169</internalNodes>
          <leafValues>
            -6.2084883451461792e-001 1.2405008822679520e-001</leafValues></_>
        <_>
          <internalNodes>
            0 -1 32 -291307597 -286621698 -528395 -16975885 -805371969
            -286556169 -805317129 -805306625</internalNodes>
          <leafValues>
            -4.1508942842483521e-001 2.8486126661300659e-001</leafValues></_>
        <_>
          <internalNodes>
            0 -1 50 -553648145 -11534353 -83960066 1380120574 -563093942
            -615625905 -34605126 -146539137</internalNodes>
          <leafValues>
            -3.3415675163269043e-001 3.5782334208488464e-001</leafValues></_>
        <_>
          <internalNodes>
            0 -1 113 -1392731051 -1091043505 -302579777 209189757
            -16955312 -67240076 -2030257412 -1468205345</internalNodes>
          <leafValues>
            -4.4939845800399780e-001 2.5382104516029358e-001</leafValues></_>
        <_>
          <internalNodes>
            0 -1 123 -33554437 -823201886 -428869646 -672532634
            -536870925 -848298177 -672668188 -169347585</internalNodes>
          <leafValues>
            -2.5254818797111511e-001 4.1223302483558655e-001</leafValues></_>
        <_>
          <internalNodes>
            0 -1 13 -269750289 -420810774 -969412856 -17826566 -77632097
            25157178 -167774745 -674507553</internalNodes>
          <leafValues>
            -3.4101498126983643e-001 2.9790407419204712e-001</leafValues></_>
        <_>
          <internalNodes>
            0 -1 89 175648053 -1426423971 -872552611 -1361266829
            -34309259 -268451851 -201108 -285279163</internalNodes>
          <leafValues>
            -5.2137148380279541e-001 1.9637964665889740e-001</leafValues></_>
        <_>
          <internalNodes>
            0 -1 16 -227375534 -746639365 -84256107 1937444619
            2100427476 2113924091 -10596617 -37781633</internalNodes>
          <leafValues>
            -3.3746919035911560e-001 2.9870447516441345e-001</leafValues></_>
        <_>
          <internalNodes>
            0 -1 93 -589497892 -117899522 -572551561 -321982478
            -1393273491 -1939407114 -134253318 -301798878</internalNodes>
          <leafValues>
            -3.5104838013648987e-001 2.6685610413551331e-001</leafValues></_>
        <_>
          <internalNodes>
            0 -1 126 -268726 -755312709 -419696930 1391711032 -112855742
            1416978432 -9045318 -782770533</internalNodes>
          <leafValues>
            -3.3277240395545959e-001 2.7675816416740417e-001</leafValues></_>
        <_>
          <internalNodes>
            0 -1 79 -1896042507 -34324869 -1076511761 -9797634
            -268525571 -806520226 -807486471 -1614139480</internalNodes>
          <leafValues>
            -2.9936546087265015e-001 3.2704120874404907e-001</leafValues></_>
        <_>
          <internalNodes>
            0 -1 61 1364048810 -533485462 2138333776 147098318
            -558235734 -1052689 2037775746 1355655842</internalNodes>
          <leafValues>
            -4.1862136125564575e-001 2.2033946216106415e-001</leafValues></_>
        <_>
          <internalNodes>
            0 -1 77 -1367472073 -1360077057 -1084920833 -1359204609
            -8487055 -268763149 -295846571 -862003716</internalNodes>
          <leafValues>
            -4.5525133609771729e-001 1.9178189337253571e-001</leafValues></_></weakClassifiers></_>
    <!-- stage 10 -->
    <_>
      <maxWeakCount>17</maxWeakCount>
      <stageThreshold>-1.8240693807601929e+000</stageThreshold>
      <weakClassifiers>
        <_>
          <internalNodes>
            0 -1 48 -782893065 -237635593 -940319107 -33555209 -2097217
            -318910465 -268448689 -858831793</internalNodes>
          <leafValues>
            -5.9007513523101807e-001 1.1464354395866394e-001</leafValues></_>
        <_>
          <internalNodes>
            0 -1 102 -285268441 2138924895 -289940481 2146688573
            -1130365100 -8390023 -93389058 -294453517</internalNodes>
          <leafValues>
            -4.6573910117149353e-001 2.2082969546318054e-001</leafValues></_>
        <_>
          <internalNodes>
            0 -1 81 1358025973 444442613 -1159341825 2063003573
            229471397 -1107345475 82059681 1405439627</internalNodes>
          <leafValues>
            -4.2603039741516113e-001 2.4399536848068237e-001</leafValues></_>
        <_>
          <internalNodes>
            0 -1 27 -353636614 -201917189 -801441158 308332730
            1425532480 -159912075 -165413434 -264111545</internalNodes>
          <leafValues>
            -4.2027345299720764e-001 2.2487114369869232e-001</leafValues></_>
        <_>
          <internalNodes>
            0 -1 54 -799744384 -644826548 1346678037 -1847219537
            -9125957 -17766410 -278545521 889563663</internalNodes>
          <leafValues>
            -4.4200468063354492e-001 2.2569806873798370e-001</leafValues></_>
        <_>
          <internalNodes>
            0 -1 5 -1011094549 -1009811476 -30052176 -571867716
            595303808 143645532 91713749 1106507204</internalNodes>
          <leafValues>
            -3.8892316818237305e-001 2.6771959662437439e-001</leafValues></_>
        <_>
          <internalNodes>
            0 -1 91 -725291546 1389932475 -688640967 -170742226
            1087391229 -67813380 -635688978 999624359</internalNodes>
          <leafValues>
            -3.5817548632621765e-001 2.6613718271255493e-001</leafValues></_>
        <_>
          <internalNodes>
            0 -1 56 -1361103065 -827657218 -1649542153 -544411425
            -1342202018 -1882228258 507507451 -1620124163</internalNodes>
          <leafValues>
            -3.7208539247512817e-001 2.5859078764915466e-001</leafValues></_>
        <_>
          <internalNodes>
            0 -1 132 -151002592 -613646586 768539832 -1156580769
            -570484344 1236225029 212415624 -81526901</internalNodes>
          <leafValues>
            -3.2730308175086975e-001 2.8518566489219666e-001</leafValues></_>
        <_>
          <internalNodes>
            0 -1 124 -402653341 -1364290646 -33558544 -156370966
            -816843001 -973145779 -135269404 -726141220</internalNodes>
          <leafValues>
            -3.5578975081443787e-001 2.5558048486709595e-001</leafValues></_>
        <_>
          <internalNodes>
            0 -1 75 1410653392 -56820008 -1214333452 2112858597
            1576336268 -591078468 -184574753 185291343</internalNodes>
          <leafValues>
            -3.3393225073814392e-001 2.6721951365470886e-001</leafValues></_>
        <_>
          <internalNodes>
            0 -1 17 -277877073 -399841278 1728031908 -693196052
            -616076429 1257503732 -537399501 -671619833</internalNodes>
          <leafValues>
            -3.7239715456962585e-001 2.3810414969921112e-001</leafValues></_>
        <_>
          <internalNodes>
            0 -1 40 -218108826 2112879470 -26219808 -1295862162
            -1738543602 -903873973 -1243873836 -262670489</internalNodes>
          <leafValues>
            -4.0575295686721802e-001 2.1598076820373535e-001</leafValues></_>
        <_>
          <internalNodes>
            0 -1 51 1432700564 889255536 -134325547 904751915 -697963531
            -570834995 -705695810 682467983</internalNodes>
          <leafValues>
            -3.8376742601394653e-001 2.2992537915706635e-001</leafValues></_>
        <_>
          <internalNodes>
            0 -1 70 1559136260 -1594971249 -1679908099 1032236973
            1878439828 -1074056517 -671862667 -1343352913</internalNodes>
          <leafValues>
            -5.0021529197692871e-001 1.6389313340187073e-001</leafValues></_>
        <_>
          <internalNodes>
            0 -1 85 1712125848 337174200 -1486025609 -282219852
            624287472 -913247376 -1022147205 -1458582533</internalNodes>
          <leafValues>
            -2.9097014665603638e-001 3.0130141973495483e-001</leafValues></_>
        <_>
          <internalNodes>
            0 -1 12 -1604013136 -2031682834 -402388987 -523752791
            2012667732 -437650945 -16550125 -1778945549</internalNodes>
          <leafValues>
            -4.6564686298370361e-001 1.7793951928615570e-001</leafValues></_></weakClassifiers></_>
    <!-- stage 11 -->
    <_>
      <maxWeakCount>16</maxWeakCount>
      <stageThreshold>-1.6863015890121460e+000</stageThreshold>
      <weakClassifiers>
        <_>
          <internalNodes>
            0 -1 116 -33554757 -1118570497 753778685 -1107296513 -545144
            -4212738 -1392636760 -1392640005</internalNodes>
          <leafValues>
            -6.1988157033920288e-001 -4.3297253549098969e-002</leafValues></_>
        <_>
          <internalNodes>
            0 -1 127 -67110385 1904213819 -1679995137 1383332863
            -210243828 -700760205 -546832658 -231478405</internalNodes>
          <leafValues>
            -3.4092769026756287e-001 2.9357445240020752e-001</leafValues></_>
        <_>
          <internalNodes>
            0 -1 98 -451480303 -1074512394 -2637835 -136679940
            -1082132487 -285417483 1006477304 -1074246468</internalNodes>
          <leafValues>
            -3.5685780644416809e-001 2.6313710212707520e-001</leafValues></_>
        <_>
          <internalNodes>
            0 -1 15 -353390902 581044458 935743347 -1020654582
            -271353409 801043966 -478183437 -940049153</internalNodes>
          <leafValues>
            -3.5977122187614441e-001 2.6298800110816956e-001</leafValues></_>
        <_>
          <internalNodes>
            0 -1 45 1361161649 838116333 -1081233607 834972422
            -134764627 -657409 -1357010499 951879822</internalNodes>
          <leafValues>
            -3.4312576055526733e-001 2.8314143419265747e-001</leafValues></_>
        <_>
          <internalNodes>
            0 -1 138 -577779964 -1272008082 -1493425520 -1610618908
            2002757377 491249519 1726473344 -60293141</internalNodes>
          <leafValues>
            -3.9321336150169373e-001 2.2091385722160339e-001</leafValues></_>
        <_>
          <internalNodes>
            0 -1 7 -268439829 -840176038 -18874926 -637535149 1828189150
            1302358860 1409152231 1174403063</internalNodes>
          <leafValues>
            -4.1446548700332642e-001 2.2093681991100311e-001</leafValues></_>
        <_>
          <internalNodes>
            0 -1 65 -245040504 1961226187 -1562056927 267904577
            -438046786 -898543009 -16787105 1326139915</internalNodes>
          <leafValues>
            -3.1752115488052368e-001 2.7471625804901123e-001</leafValues></_>
        <_>
          <internalNodes>
            0 -1 101 243205693 1977269982 -292094469 -8585953 -537925763
            -1208052738 2142633725 -553976266</internalNodes>
          <leafValues>
            -4.0768745541572571e-001 1.9899995625019073e-001</leafValues></_>
        <_>
          <internalNodes>
            0 -1 112 -544740700 153550764 -169871664 -455610398
            -1383078517 -1911556177 1174140100 -2066221593</internalNodes>
          <leafValues>
            -4.1132098436355591e-001 2.0434629917144775e-001</leafValues></_>
        <_>
          <internalNodes>
            0 -1 97 1543831548 1422966783 1071099565 -1309588244
            1356146094 -9314345 779428483 796216047</internalNodes>
          <leafValues>
            -3.9389228820800781e-001 1.9543766975402832e-001</leafValues></_>
        <_>
          <internalNodes>
            0 -1 31 -138416757 -266373 -385878302 -222298209 -134220026
            589299267 2136472902 -753140769</internalNodes>
          <leafValues>
            -2.2579929232597351e-001 3.4831091761589050e-001</leafValues></_>
        <_>
          <internalNodes>
            0 -1 143 -537944317 -1903249630 781969328 -898790750
            -275255369 -814828828 1170456768 -454691598</internalNodes>
          <leafValues>
            -3.3626765012741089e-001 2.4075864255428314e-001</leafValues></_>
        <_>
          <internalNodes>
            0 -1 60 -1934330129 -1378488614 140814579 -1392575234
            -16777724 -67764257 122024738 -369119309</internalNodes>
          <leafValues>
            -2.9561635851860046e-001 2.8247281908988953e-001</leafValues></_>
        <_>
          <internalNodes>
            0 -1 92 -648161362 1970400558 -285938014 663463582
            -1536104450 -285815562 -1244649537 1864568367</internalNodes>
          <leafValues>
            -2.8317379951477051e-001 2.8757801651954651e-001</leafValues></_>
        <_>
          <internalNodes>
            0 -1 22 -320886257 -419435793 -1241526278 1895221352
            1874816783 1165766267 1035557132 -252183305</internalNodes>
          <leafValues>
            -3.9183190464973450e-001 1.9570311903953552e-001</leafValues></_></weakClassifiers></_>
    <!-- stage 12 -->
    <_>
      <maxWeakCount>17</maxWeakCount>
      <stageThreshold>-1.5198535919189453e+000</stageThreshold>
      <weakClassifiers>
        <_>
          <internalNodes>
            0 -1 121 -65 -159776850 -1195397377 -524289 -134238583 -2097
            -1346425202 -1092616193</internalNodes>
          <leafValues>
            -5.7928609848022461e-001 3.0702244490385056e-002</leafValues></_>
        <_>
          <internalNodes>
            0 -1 69 -1564525641 -655938 1941372925 -536871435
            -1075316737 -2097942 -671098881 -607144449</internalNodes>
          <leafValues>
            -3.1660795211791992e-001 2.8498435020446777e-001</leafValues></_>
        <_>
          <internalNodes>
            0 -1 20 -496333110 1122021058 -395155454 1879992100
            1121378661 2068968647 1107283667 -210510085</internalNodes>
          <leafValues>
            -4.2072534561157227e-001 2.0583699643611908e-001</leafValues></_>
        <_>
          <internalNodes>
            0 -1 125 -1063333 2121364351 -623182338 1883388287
            -306343358 2135226122 -33774854 1879239010</internalNodes>
          <leafValues>
            -3.4074324369430542e-001 2.5061970949172974e-001</leafValues></_>
        <_>
          <internalNodes>
            0 -1 47 1365639044 290586157 -4440 1610078910 -29493377
            -1703817708 -285752256 1211057216</internalNodes>
          <leafValues>
            -3.8271957635879517e-001 2.3747876286506653e-001</leafValues></_>
        <_>
          <internalNodes>
            0 -1 100 -725025026 -992952324 -374445195 -1897092895
            -1805383496 -1130841476 1059278783 1057203963</internalNodes>
          <leafValues>
            -3.6684340238571167e-001 2.2169068455696106e-001</leafValues></_>
        <_>
          <internalNodes>
            0 -1 105 -2141 1508439554 -1211116076 -303464820 -271583286
            -1884553799 1441748225 -862983793</internalNodes>
          <leafValues>
            -3.0591145157814026e-001 2.6249304413795471e-001</leafValues></_>
        <_>
          <internalNodes>
            0 -1 63 -1534011428 -33566785 1029614141 754756127 -67125327
            -1572865 800795449 -1343443285</internalNodes>
          <leafValues>
            -2.8592342138290405e-001 2.8580179810523987e-001</leafValues></_>
        <_>
          <internalNodes>
            0 -1 135 -290464256 173799230 -275976544 -1833962741
            1727997185 2145818605 -440474496 -1858605414</internalNodes>
          <leafValues>
            -4.4555059075355530e-001 1.6983763873577118e-001</leafValues></_>
        <_>
          <internalNodes>
            0 -1 41 -1346633865 -35065099 -1075896321 -66572 -1140860422
            -1186005028 498856415 -805447175</internalNodes>
          <leafValues>
            -2.6788812875747681e-001 2.9288357496261597e-001</leafValues></_>
        <_>
          <internalNodes>
            0 -1 86 179045748 2127430973 -33648659 -1086574853
            -1380130827 -1895874566 -1447217160 -1078039080</internalNodes>
          <leafValues>
            -3.5148400068283081e-001 2.2835196554660797e-001</leafValues></_>
        <_>
          <internalNodes>
            0 -1 0 -420743473 -825427800 382390624 -537921548 1076884734
            258388956 1429689649 1229976785</internalNodes>
          <leafValues>
            -3.7740677595138550e-001 2.0212776958942413e-001</leafValues></_>
        <_>
          <internalNodes>
            0 -1 74 1954907296 1400713199 -8616081 1068380075 620066287
            1610332095 1043672974 1794573314</internalNodes>
          <leafValues>
            -3.9022198319435120e-001 1.9920793175697327e-001</leafValues></_>
        <_>
          <internalNodes>
            0 -1 84 -455808321 2086268915 2130562739 -852594705
            1173648887 -852623966 -142708389 -903088494</internalNodes>
          <leafValues>
            -2.4538084864616394e-001 3.2126900553703308e-001</leafValues></_>
        <_>
          <internalNodes>
            0 -1 30 -16830750 1072163498 -53531398 539164394 -751314606
            -296270841 -1239948182 1612971091</internalNodes>
          <leafValues>
            -4.2065653204917908e-001 1.8735919892787933e-001</leafValues></_>
        <_>
          <internalNodes>
            0 -1 114 -1470157253 1671898441 -1096812161 -572031281
            -21266880 -20226593 -1681063946 -565534758</internalNodes>
          <leafValues>
            -3.9811015129089355e-001 1.9205173850059509e-001</leafValues></_>
        <_>
          <internalNodes>
            0 -1 67 1943257766 821483263 -271588497 2106182632
            1433602556 -252650645 1969614318 -1877772566</internalNodes>
          <leafValues>
            -3.1641536951065063e-001 2.5665172934532166e-001</leafValues></_></weakClassifiers></_></stages>
  <features>
    <_>
      <rect>
        0 0 1 1</rect></_>
    <_>
      <rect>
        0 0 1 3</rect></_>
    <_>
      <rect>
        0 0 1 6</rect></_>
    <_>
      <rect>
        0 0 2 1</rect></_>
    <_>
      <rect>
        0 0 3 2</rect></_>
    <_>
      <rect>
        0 1 1 1</rect></_>
    <_>
      <rect>
        0 1 1 3</rect></_>
    <_>
      <rect>
        0 1 2 1</rect></_>
    <_>
      <rect>
        0 2 1 2</rect></_>
    <_>
      <rect>
        0 3 1 1</rect></_>
    <_>
      <rect>
        0 4 2 9</rect></_>
    <_>
      <rect>
        0 5 1 3</rect></_>
    <_>
      <rect>
        0 5 7 9</rect></_>
    <_>
      <rect>
        0 7 1 1</rect></_>
    <_>
      <rect>
        0 8 1 1</rect></_>
    <_>
      <rect>
        0 8 1 3</rect></_>
    <_>
      <rect>
        0 8 2 6</rect></_>
    <_>
      <rect>
        0 11 1 1</rect></_>
    <_>
      <rect>
        0 11 1 2</rect></_>
    <_>
      <rect>
        0 13 1 1</rect></_>
    <_>
      <rect>
        0 13 1 2</rect></_>
    <_>
      <rect>
        0 16 1 1</rect></_>
    <_>
      <rect>
        0 17 1 1</rect></_>
    <_>
      <rect>
        0 18 1 2</rect></_>
    <_>
      <rect>
        0 19 1 1</rect></_>
    <_>
      <rect>
        0 20 1 1</rect></_>
    <_>
      <rect>
        0 20 1 2</rect></_>
    <_>
      <rect>
        0 20 2 3</rect></_>
    <_>
      <rect>
        0 21 2 2</rect></_>
    <_>
      <rect>
        0 24 2 2</rect></_>
    <_>
      <rect>
        0 26 2 2</rect></_>
    <_>
      <rect>
        0 28 1 1</rect></_>
    <_>
      <rect>
        1 0 3 4</rect></_>
    <_>
      <rect>
        1 0 4 1</rect></_>
    <_>
      <rect>
        1 1 1 2</rect></_>
    <_>
      <rect>
        1 7 3 6</rect></_>
    <_>
      <rect>
        1 18 1 1</rect></_>
    <_>
      <rect>
        1 23 1 1</rect></_>
    <_>
      <rect>
        2 5 4 5</rect></_>
    <_>
      <rect>
        2 11 3 5</rect></_>
    <_>
      <rect>
        2 27 2 1</rect></_>
    <_>
      <rect>
        3 0 1 2</rect></_>
    <_>
      <rect>
        3 0 7 1</rect></_>
    <_>
      <rect>
        3 1 1 1</rect></_>
    <_>
      <rect>
        3 2 1 1</rect></_>
    <_>
      <rect>
        3 7 4 4</rect></_>
    <_>
      <rect>
        3 9 3 6</rect></_>
    <_>
      <rect>
        3 15 3 5</rect></_>
    <_>
      <rect>
        3 16 4 5</rect></_>
    <_>
      <rect>
        3 26 1 1</rect></_>
    <_>
      <rect>
        3 28 2 1</rect></_>
    <_>
      <rect>
        4 9 3 5</rect></_>
    <_>
      <rect>
        4 9 5 5</rect></_>
    <_>
      <rect>
        4 9 5 6</rect></_>
    <_>
      <rect>
        4 10 5 6</rect></_>
    <_>
      <rect>
        4 12 4 6</rect></_>
    <_>
      <rect>
        5 0 1 1</rect></_>
    <_>
      <rect>
        5 0 1 3</rect></_>
    <_>
      <rect>
        5 0 3 3</rect></_>
    <_>
      <rect>
        5 0 6 4</rect></_>
    <_>
      <rect>
        5 0 6 9</rect></_>
    <_>
      <rect>
        5 1 4 9</rect></_>
    <_>
      <rect>
        5 5 1 4</rect></_>
    <_>
      <rect>
        5 5 6 5</rect></_>
    <_>
      <rect>
        5 6 5 5</rect></_>
    <_>
      <rect>
        5 16 4 5</rect></_>
    <_>
      <rect>
        6 1 4 10</rect></_>
    <_>
      <rect>
        6 12 3 2</rect></_>
    <_>
      <rect>
        6 26 3 2</rect></_>
    <_>
      <rect>
        7 0 1 1</rect></_>
    <_>
      <rect>
        7 0 4 5</rect></_>
    <_>
      <rect>
        7 5 4 5</rect></_>
    <_>
      <rect>
        7 8 4 5</rect></_>
    <_>
      <rect>
        8 0 1 1</rect></_>
    <_>
      <rect>
        8 9 4 4</rect></_>
    <_>
      <rect>
        8 26 3 2</rect></_>
    <_>
      <rect>
        8 29 1 1</rect></_>
    <_>
      <rect>
        9 1 2 2</rect></_>
    <_>
      <rect>
        9 10 4 5</rect></_>
    <_>
      <rect>
        9 29 1 1</rect></_>
    <_>
      <rect>
        10 0 1 1</rect></_>
    <_>
      <rect>
        10 3 4 5</rect></_>
    <_>
      <rect>
        10 4 4 6</rect></_>
    <_>
      <rect>
        10 8 4 6</rect></_>
    <_>
      <rect>
        10 16 4 5</rect></_>
    <_>
      <rect>
        10 22 3 3</rect></_>
    <_>
      <rect>
        10 28 1 1</rect></_>
    <_>
      <rect>
        10 29 1 1</rect></_>
    <_>
      <rect>
        11 0 1 1</rect></_>
    <_>
      <rect>
        11 0 2 3</rect></_>
    <_>
      <rect>
        11 2 4 6</rect></_>
    <_>
      <rect>
        11 9 3 4</rect></_>
    <_>
      <rect>
        11 12 3 6</rect></_>
    <_>
      <rect>
        11 14 4 6</rect></_>
    <_>
      <rect>
        11 26 2 2</rect></_>
    <_>
      <rect>
        11 29 1 1</rect></_>
    <_>
      <rect>
        12 1 2 1</rect></_>
    <_>
      <rect>
        12 7 3 5</rect></_>
    <_>
      <rect>
        12 29 1 1</rect></_>
    <_>
      <rect>
        12 29 2 1</rect></_>
    <_>
      <rect>
        13 10 3 6</rect></_>
    <_>
      <rect>
        14 0 1 1</rect></_>
    <_>
      <rect>
        14 0 2 1</rect></_>
    <_>
      <rect>
        14 2 1 1</rect></_>
    <_>
      <rect>
        14 9 3 6</rect></_>
    <_>
      <rect>
        14 26 3 2</rect></_>
    <_>
      <rect>
        14 29 1 1</rect></_>
    <_>
      <rect>
        15 0 1 1</rect></_>
    <_>
      <rect>
        15 0 1 3</rect></_>
    <_>
      <rect>
        15 0 3 2</rect></_>
    <_>
      <rect>
        15 1 3 1</rect></_>
    <_>
      <rect>
        15 22 3 3</rect></_>
    <_>
      <rect>
        15 28 2 1</rect></_>
    <_>
      <rect>
        16 1 2 4</rect></_>
    <_>
      <rect>
        17 1 1 1</rect></_>
    <_>
      <rect>
        17 5 2 5</rect></_>
    <_>
      <rect>
        17 7 2 3</rect></_>
    <_>
      <rect>
        18 0 2 3</rect></_>
    <_>
      <rect>
        18 1 2 2</rect></_>
    <_>
      <rect>
        18 2 1 1</rect></_>
    <_>
      <rect>
        18 4 2 9</rect></_>
    <_>
      <rect>
        18 6 2 4</rect></_>
    <_>
      <rect>
        18 19 2 3</rect></_>
    <_>
      <rect>
        20 23 1 1</rect></_>
    <_>
      <rect>
        20 24 1 1</rect></_>
    <_>
      <rect>
        21 1 1 2</rect></_>
    <_>
      <rect>
        21 3 1 1</rect></_>
    <_>
      <rect>
        21 3 1 2</rect></_>
    <_>
      <rect>
        21 4 1 2</rect></_>
    <_>
      <rect>
        21 6 1 1</rect></_>
    <_>
      <rect>
        21 6 1 2</rect></_>
    <_>
      <rect>
        21 7 1 2</rect></_>
    <_>
      <rect>
        21 8 1 4</rect></_>
    <_>
      <rect>
        21 9 1 1</rect></_>
    <_>
      <rect>
        21 9 1 2</rect></_>
    <_>
      <rect>
        21 12 1 2</rect></_>
    <_>
      <rect>
        21 13 1 1</rect></_>
    <_>
      <rect>
        21 14 1 1</rect></_>
    <_>
      <rect>
        21 14 1 2</rect></_>
    <_>
      <rect>
        21 15 1 1</rect></_>
    <_>
      <rect>
        21 18 1 1</rect></_>
    <_>
      <rect>
        21 18 1 2</rect></_>
    <_>
      <rect>
        21 19 1 1</rect></_>
    <_>
      <rect>
        21 19 1 2</rect></_>
    <_>
      <rect>
        21 21 1 1</rect></_></features></cascade>
</opencv_storage>
