<?xml version="1.0"?>
<opencv_storage>
<cascade>
  <stageType>BOOST</stageType>
  <featureType>LBP</featureType>
  <height>12</height>
  <width>20</width>
  <stageParams>
    <boostType>GAB</boostType>
    <minHitRate>9.9500000476837158e-001</minHitRate>
    <maxFalseAlarm>5.0000000000000000e-001</maxFalseAlarm>
    <weightTrimRate>9.4999998807907104e-001</weightTrimRate>
    <maxDepth>1</maxDepth>
    <maxWeakCount>100</maxWeakCount></stageParams>
  <featureParams>
    <maxCatCount>256</maxCatCount>
    <featSize>1</featSize></featureParams>
  <stageNum>18</stageNum>
  <stages>
    <!-- stage 0 -->
    <_>
      <maxWeakCount>18</maxWeakCount>
      <stageThreshold>-1.8175024986267090e+000</stageThreshold>
      <weakClassifiers>
        <_>
          <internalNodes>
            0 -1 153 -36896772 -34277412 -11206691 -131138 -202834980
            -44240408 -269094978 -7804278</internalNodes>
          <leafValues>
            -7.3858082294464111e-001 -1.4886984229087830e-001</leafValues></_>
        <_>
          <internalNodes>
            0 -1 474 -1375740419 4085241 -1879069481 427536959
            -1343242753 148880891 -1631601155 16760575</internalNodes>
          <leafValues>
            -4.4410958886146545e-001 2.2763516008853912e-001</leafValues></_>
        <_>
          <internalNodes>
            0 -1 10 -135200772 -14638348 -554416208 -142599504 21952
            -1002408656 1426093108 1433425232</internalNodes>
          <leafValues>
            -6.0348379611968994e-001 1.5732713043689728e-001</leafValues></_>
        <_>
          <internalNodes>
            0 -1 251 -27142864 872982069 -611453441 -1177308525
            -279449890 -1163948310 -1934844788 9037999</internalNodes>
          <leafValues>
            -3.0935525894165039e-001 3.1224516034126282e-001</leafValues></_>
        <_>
          <internalNodes>
            0 -1 307 271595572 292666680 989666047 -1648658189 751901948
            -1713578305 773922540 405798960</internalNodes>
          <leafValues>
            -4.2842677235603333e-001 2.1370103955268860e-001</leafValues></_>
        <_>
          <internalNodes>
            0 -1 85 -32905 -65665 -1073791241 -526733313 2046262576
            2138525567 -268994795 -143428009</internalNodes>
          <leafValues>
            -2.7598503232002258e-001 3.3303648233413696e-001</leafValues></_>
        <_>
          <internalNodes>
            0 -1 391 -144711876 686870636 -1090454636 543873529
            2095963640 -1871087020 -1124546280 653439</internalNodes>
          <leafValues>
            -3.4010374546051025e-001 2.2186465561389923e-001</leafValues></_>
        <_>
          <internalNodes>
            0 -1 365 -2030565035 -9045000 2124414975 -1183745 767532989
            -276824073 -1142574081 -1431698424</internalNodes>
          <leafValues>
            -2.7321922779083252e-001 2.6879605650901794e-001</leafValues></_>
        <_>
          <internalNodes>
            0 -1 9 -1009325386 -1114209554 -445505742 219678752 1048840
            -548284034 1122257393 22496579</internalNodes>
          <leafValues>
            -3.4933841228485107e-001 1.8799619376659393e-001</leafValues></_>
        <_>
          <internalNodes>
            0 -1 356 779894781 2111222797 -42877059 326881009
            -1618051075 -68211457 2113578237 -1095230344</internalNodes>
          <leafValues>
            -3.0878946185112000e-001 2.1694952249526978e-001</leafValues></_>
        <_>
          <internalNodes>
            0 -1 519 -272630401 -2133137012 -310412291 -1796014595
            -1904214173 25677311 -303439392 -1061159181</internalNodes>
          <leafValues>
            -2.1995750069618225e-001 3.2459843158721924e-001</leafValues></_>
        <_>
          <internalNodes>
            0 -1 385 767096189 -73733 -3154177 -672385763 536361981
            -1179028569 939417340 984090040</internalNodes>
          <leafValues>
            -3.4713530540466309e-001 1.8748867511749268e-001</leafValues></_>
        <_>
          <internalNodes>
            0 -1 507 -67122120 271382377 -1867975492 -1207768818
            -119402236 -2007028083 -1530044398 -2132061461</internalNodes>
          <leafValues>
            -2.6694923639297485e-001 2.2091825306415558e-001</leafValues></_>
        <_>
          <internalNodes>
            0 -1 245 -2003141259 -404956361 -1175060749 2010074069
            -1665187863 -574678356 1582047227 -1431829500</internalNodes>
          <leafValues>
            -2.8614738583564758e-001 2.2266098856925964e-001</leafValues></_>
        <_>
          <internalNodes>
            0 -1 473 -2025914507 -1082205121 -1275080713 1055915701
            534667263 -84542017 1073733103 -1191196167</internalNodes>
          <leafValues>
            -1.8227162957191467e-001 3.1938487291336060e-001</leafValues></_>
        <_>
          <internalNodes>
            0 -1 73 -388307027 -1049135111 -30607499 -489638790
            1953528901 1966162261 -345868751 -164605583</internalNodes>
          <leafValues>
            -3.0452325940132141e-001 1.9733534753322601e-001</leafValues></_>
        <_>
          <internalNodes>
            0 -1 274 -424953836 424756564 -1073914955 368801662
            -638075907 -1191946340 960193947 952051867</internalNodes>
          <leafValues>
            -2.2162790596485138e-001 2.6016917824745178e-001</leafValues></_>
        <_>
          <internalNodes>
            0 -1 521 -1375741516 15867041 -1679839560 -1531697984
            -1613826113 -1913414471 903816308 16438368</internalNodes>
          <leafValues>
            -4.0300402045249939e-001 1.5111851692199707e-001</leafValues></_></weakClassifiers></_>
    <!-- stage 1 -->
    <_>
      <maxWeakCount>23</maxWeakCount>
      <stageThreshold>-1.8458119630813599e+000</stageThreshold>
      <weakClassifiers>
        <_>
          <internalNodes>
            0 -1 516 -2049 -572529924 -257950785 -659030373 -257
            -1900095334 -924852755 -856687105</internalNodes>
          <leafValues>
            -6.1823111772537231e-001 3.6393713206052780e-002</leafValues></_>
        <_>
          <internalNodes>
            0 -1 90 1395667184 -36461325 849417467 1035417075 1401173744
            -1074663012 1907834111 905252898</internalNodes>
          <leafValues>
            -4.2690682411193848e-001 1.6509291529655457e-001</leafValues></_>
        <_>
          <internalNodes>
            0 -1 11 -455414786 -134290554 -407044107 -557024 1097082590
            -698625 2077587455 1978090819</internalNodes>
          <leafValues>
            -2.9872304201126099e-001 2.7695029973983765e-001</leafValues></_>
        <_>
          <internalNodes>
            0 -1 24 -324603910 -835528142 2070941689 1862325856
            1073791732 -1973391886 -697973580 -731528621</internalNodes>
          <leafValues>
            -3.0004686117172241e-001 2.3783944547176361e-001</leafValues></_>
        <_>
          <internalNodes>
            0 -1 84 -1000296232 1569896866 883896283 -1461414 1159013872
            2079639025 1802122712 153420096</internalNodes>
          <leafValues>
            -3.0509322881698608e-001 2.3171682655811310e-001</leafValues></_>
        <_>
          <internalNodes>
            0 -1 413 -41944847 9032821 -1343764303 431481343 -1685195523
            211672837 -1644449032 150863077</internalNodes>
          <leafValues>
            -2.7181175351142883e-001 2.2507305443286896e-001</leafValues></_>
        <_>
          <internalNodes>
            0 -1 389 -193466364 542305578 -559696271 1889722239
            -65034228 -60823225 -120985432 -1599082741</internalNodes>
          <leafValues>
            -2.8029203414916992e-001 2.3880283534526825e-001</leafValues></_>
        <_>
          <internalNodes>
            0 -1 79 -67641473 -2623489 -17940589 -254608142 1589069665
            643251971 -176720463 -211290765</internalNodes>
          <leafValues>
            -1.7875295877456665e-001 3.2288908958435059e-001</leafValues></_>
        <_>
          <internalNodes>
            0 -1 326 -1273750408 -2460799 -3751939 -35305810 1845015455
            -64061762 -1426485249 -1944059384</internalNodes>
          <leafValues>
            -2.7064964175224304e-001 1.9643928110599518e-001</leafValues></_>
        <_>
          <internalNodes>
            0 -1 22 -498145342 -2086077461 1392151539 -1159278910
            295117985 -1545251930 1706492144 1105424643</internalNodes>
          <leafValues>
            -3.1764748692512512e-001 1.6956280171871185e-001</leafValues></_>
        <_>
          <internalNodes>
            0 -1 510 -156242910 1076936023 1277039260 1484437648
            -59209206 2027510735 1623486529 -520624105</internalNodes>
          <leafValues>
            -2.2931022942066193e-001 2.2960741817951202e-001</leafValues></_>
        <_>
          <internalNodes>
            0 -1 347 1030500312 339533244 -1639255595 -1277509638
            808222111 -23536714 -1110810635 951059956</internalNodes>
          <leafValues>
            -4.4340649247169495e-001 1.1666920781135559e-001</leafValues></_>
        <_>
          <internalNodes>
            0 -1 442 -282920924 1210107780 -319292169 313950880
            -1706600035 -1362523042 -252604416 135868688</internalNodes>
          <leafValues>
            -4.0250709652900696e-001 1.3079123198986053e-001</leafValues></_>
        <_>
          <internalNodes>
            0 -1 520 -2122321384 144629024 1599576796 -2066073994
            1809173213 143634065 -1246257980 8640379</internalNodes>
          <leafValues>
            -3.2581481337547302e-001 1.6552864015102386e-001</leafValues></_>
        <_>
          <internalNodes>
            0 -1 264 -1890568324 519888621 1505653247 1962152840
            1568491006 -339123206 -1359684696 -1950845868</internalNodes>
          <leafValues>
            -3.2380539178848267e-001 1.6139391064643860e-001</leafValues></_>
        <_>
          <internalNodes>
            0 -1 154 -733889664 610837224 -277709394 733862903
            1564931492 1883931 2091871114 15052062</internalNodes>
          <leafValues>
            -3.5653343796730042e-001 1.4074668288230896e-001</leafValues></_>
        <_>
          <internalNodes>
            0 -1 450 -445125272 118874240 -901769516 87684332
            -1373848852 -1113865691 -589964208 140763319</internalNodes>
          <leafValues>
            -2.5579687952995300e-001 1.8604609370231628e-001</leafValues></_>
        <_>
          <internalNodes>
            0 -1 438 -1025444816 -1346355620 -1926880089 -1175352099
            -2094739507 -1359996280 1758494604 481303584</internalNodes>
          <leafValues>
            -3.9801400899887085e-001 1.2936985492706299e-001</leafValues></_>
        <_>
          <internalNodes>
            0 -1 86 -141402178 1043477981 -1198884111 1789143706
            1880572221 1835228015 1730566136 1661097541</internalNodes>
          <leafValues>
            -3.1197702884674072e-001 1.4949563145637512e-001</leafValues></_>
        <_>
          <internalNodes>
            0 -1 253 1566566736 -1668122343 -438849281 -602500525
            -321936654 -17760272 -724726722 -1206783081</internalNodes>
          <leafValues>
            -2.3148436844348907e-001 2.0815198123455048e-001</leafValues></_>
        <_>
          <internalNodes>
            0 -1 92 -1704031584 -1490541656 -539715631 -604526942
            1353731834 -5640078 776138967 -1069193664</internalNodes>
          <leafValues>
            -2.6123887300491333e-001 1.7841827869415283e-001</leafValues></_>
        <_>
          <internalNodes>
            0 -1 428 782796908 527996541 366715100 217084733 800282548
            -1381471837 962935032 484443640</internalNodes>
          <leafValues>
            -4.8288458585739136e-001 9.9350571632385254e-002</leafValues></_>
        <_>
          <internalNodes>
            0 -1 513 -159646918 275805290 1728044630 1353252154
            2042092669 202559440 -1473387122 -2139889185</internalNodes>
          <leafValues>
            -2.0906789600849152e-001 2.3656424880027771e-001</leafValues></_></weakClassifiers></_>
    <!-- stage 2 -->
    <_>
      <maxWeakCount>23</maxWeakCount>
      <stageThreshold>-1.6512774229049683e+000</stageThreshold>
      <weakClassifiers>
        <_>
          <internalNodes>
            0 -1 85 -32769 -1025 -561153 -67158017 1065320309 -532481
            -166027 -557195</internalNodes>
          <leafValues>
            -6.7142963409423828e-001 -1.7943781614303589e-001</leafValues></_>
        <_>
          <internalNodes>
            0 -1 407 -1351024771 -8724491 -524297 -857347 -875036691
            -5121 -4198915 -1112007308</internalNodes>
          <leafValues>
            -3.6072632670402527e-001 1.8288820981979370e-001</leafValues></_>
        <_>
          <internalNodes>
            0 -1 521 -1073745921 251063807 -1342198081 -1392591619
            535789311 268427263 -1107298315 -385875969</internalNodes>
          <leafValues>
            -2.0412434637546539e-001 3.5289856791496277e-001</leafValues></_>
        <_>
          <internalNodes>
            0 -1 304 1069030737 998014333 -541185 -1111873604 2138603513
            -38305793 -52236 1059594096</internalNodes>
          <leafValues>
            -4.2653745412826538e-001 1.7254476249217987e-001</leafValues></_>
        <_>
          <internalNodes>
            0 -1 52 -354484225 -31299810 -57147399 -1356664976
            -728476208 -648884431 -556765420 -227352299</internalNodes>
          <leafValues>
            -2.0578695833683014e-001 2.9047650098800659e-001</leafValues></_>
        <_>
          <internalNodes>
            0 -1 279 -1942456971 -34659023 -1075839489 -536887465
            -1090846725 -129 -33091 -1469841376</internalNodes>
          <leafValues>
            -2.7422037720680237e-001 2.1574403345584869e-001</leafValues></_>
        <_>
          <internalNodes>
            0 -1 519 -20976273 14863308 -100697474 -1595474444
            -285223043 214904316 -319069792 -1056964923</internalNodes>
          <leafValues>
            -2.4165977537631989e-001 2.4568647146224976e-001</leafValues></_>
        <_>
          <internalNodes>
            0 -1 267 -1896325123 -1188270151 1979709403 979902389
            -880511041 -8688161 1845405341 -1380426252</internalNodes>
          <leafValues>
            -2.7194085717201233e-001 2.1031598746776581e-001</leafValues></_>
        <_>
          <internalNodes>
            0 -1 328 -1098916075 539220647 -538214743 -1329726009
            -67108882 -70796834 -1498566994 553384683</internalNodes>
          <leafValues>
            -2.3770911991596222e-001 2.4055296182632446e-001</leafValues></_>
        <_>
          <internalNodes>
            0 -1 411 309861756 1048117247 -4405578 -1141309955 766539445
            -1158292995 523976125 145757940</internalNodes>
          <leafValues>
            -4.9367696046829224e-001 1.1274407804012299e-001</leafValues></_>
        <_>
          <internalNodes>
            0 -1 460 -270537773 694847920 1795153020 -2080445957
            -998330824 -1158418251 -395557764 11530995</internalNodes>
          <leafValues>
            -2.1764773130416870e-001 2.3230718076229095e-001</leafValues></_>
        <_>
          <internalNodes>
            0 -1 344 736640352 -1394758663 -183600132 -423694339
            -671747723 -929041673 -33817423 585112368</internalNodes>
          <leafValues>
            -4.5887854695320129e-001 1.1006098985671997e-001</leafValues></_>
        <_>
          <internalNodes>
            0 -1 6 -857299918 -1088364495 1441988124 334767120 79972020
            -2008244864 1079264688 1572951665</internalNodes>
          <leafValues>
            -3.5487508773803711e-001 1.3840001821517944e-001</leafValues></_>
        <_>
          <internalNodes>
            0 -1 401 -1600357008 -1073940099 -58795019 -1348063324
            -538951707 -1091748009 -1347897672 581960756</internalNodes>
          <leafValues>
            -4.1757303476333618e-001 1.0726550221443176e-001</leafValues></_>
        <_>
          <internalNodes>
            0 -1 507 -83888601 691861435 -1766133996 -1878349521
            -352628480 1316306829 -305192166 -521407737</internalNodes>
          <leafValues>
            -1.9602842628955841e-001 2.5728166103363037e-001</leafValues></_>
        <_>
          <internalNodes>
            0 -1 95 1112154250 -1309082714 -419524633 -709580000
            739266276 -910402201 -420129073 1952712263</internalNodes>
          <leafValues>
            -3.1879675388336182e-001 1.5317204594612122e-001</leafValues></_>
        <_>
          <internalNodes>
            0 -1 79 -68724181 -275814401 -290521810 -802489868
            1710322805 1679777591 -168398829 -445455051</internalNodes>
          <leafValues>
            -2.3323291540145874e-001 1.9987908005714417e-001</leafValues></_>
        <_>
          <internalNodes>
            0 -1 517 -1324623 280151479 -33562720 -643569943 1992274221
            150953919 -788540268 -991952985</internalNodes>
          <leafValues>
            -1.6336974501609802e-001 2.8035038709640503e-001</leafValues></_>
        <_>
          <internalNodes>
            0 -1 362 498892404 -1164156455 -1679860745 381609854
            -1529551439 -1365054761 872379828 481572860</internalNodes>
          <leafValues>
            -4.1035047173500061e-001 1.1632953584194183e-001</leafValues></_>
        <_>
          <internalNodes>
            0 -1 76 1152839450 -1409655609 -1097181620 -201970968
            350253417 -737120451 -1293911314 1877230677</internalNodes>
          <leafValues>
            -2.9554930329322815e-001 1.5038910508155823e-001</leafValues></_>
        <_>
          <internalNodes>
            0 -1 19 -286529989 -1894848726 -12774413 1000770806
            232716168 -374672522 -438050574 -421004173</internalNodes>
          <leafValues>
            -1.6300269961357117e-001 2.8792661428451538e-001</leafValues></_>
        <_>
          <internalNodes>
            0 -1 452 -35396428 406257525 -25597780 549320379 -813757400
            -44662940 -1602245400 -534256365</internalNodes>
          <leafValues>
            -2.2510847449302673e-001 2.0444422960281372e-001</leafValues></_>
        <_>
          <internalNodes>
            0 -1 212 -270000132 1042694143 -25729 -1904722248 1878922461
            -1107722305 -338273155 2058779384</internalNodes>
          <leafValues>
            -2.8616571426391602e-001 1.5921664237976074e-001</leafValues></_></weakClassifiers></_>
    <!-- stage 3 -->
    <_>
      <maxWeakCount>21</maxWeakCount>
      <stageThreshold>-1.7124357223510742e+000</stageThreshold>
      <weakClassifiers>
        <_>
          <internalNodes>
            0 -1 40 -756291934 -963977086 -860476976 -251166048
            -681148208 913702913 1447085954 -134786173</internalNodes>
          <leafValues>
            -6.7100441455841064e-001 -2.0337738096714020e-001</leafValues></_>
        <_>
          <internalNodes>
            0 -1 243 806370520 -716159876 742469753 2105348305 837852671
            -38209058 1022500603 703078528</internalNodes>
          <leafValues>
            -4.4919711351394653e-001 1.2392364442348480e-001</leafValues></_>
        <_>
          <internalNodes>
            0 -1 515 -71316336 -789930312 1996418080 1890700484
            -860031352 554836 -1069644154 -1064319862</internalNodes>
          <leafValues>
            -2.4725107848644257e-001 2.8571283817291260e-001</leafValues></_>
        <_>
          <internalNodes>
            0 -1 480 -604338256 -1170713988 -453508432 -46021368
            -1851222608 -563861328 616575360 -2046163944</internalNodes>
          <leafValues>
            -2.9936763644218445e-001 2.1912688016891479e-001</leafValues></_>
        <_>
          <internalNodes>
            0 -1 59 -16777305 -341693380 -805372012 2047922976
            -1272945852 -971749579 -144517534 -216859536</internalNodes>
          <leafValues>
            -2.0991890132427216e-001 2.8382384777069092e-001</leafValues></_>
        <_>
          <internalNodes>
            0 -1 446 -771028848 -606970825 1115561431 -169906051
            -85555060 -1850588574 -1777683734 -1575869936</internalNodes>
          <leafValues>
            -2.5694882869720459e-001 2.2576248645782471e-001</leafValues></_>
        <_>
          <internalNodes>
            0 -1 349 -1665714984 285046885 -1365256489 501188274
            -1246052875 482327032 964140537 148861176</internalNodes>
          <leafValues>
            -3.2210624217987061e-001 1.8026953935623169e-001</leafValues></_>
        <_>
          <internalNodes>
            0 -1 29 -224726366 -1031094640 1244792880 -209875280
            -185031760 537128630 1919959988 -205016606</internalNodes>
          <leafValues>
            -1.9482524693012238e-001 2.7218148112297058e-001</leafValues></_>
        <_>
          <internalNodes>
            0 -1 520 -1054753 -1998651932 -1620594724 -1671467290
            -34081282 -924909850 -1644718348 -1071672070</internalNodes>
          <leafValues>
            -1.7627172172069550e-001 2.9039937257766724e-001</leafValues></_>
        <_>
          <internalNodes>
            0 -1 48 -822805570 -8722818 -1236128232 365977716
            -2104428298 -621798183 -188616023 1259358150</internalNodes>
          <leafValues>
            -3.1954234838485718e-001 1.7334768176078796e-001</leafValues></_>
        <_>
          <internalNodes>
            0 -1 145 1409292016 1429758742 -887845057 938808721
            -1906459674 -1675317121 1005849322 4482626</internalNodes>
          <leafValues>
            -3.1589457392692566e-001 1.6909451782703400e-001</leafValues></_>
        <_>
          <internalNodes>
            0 -1 500 -803241854 -750385518 -1132466342 1358574590
            -868784632 1696267539 2052303006 -261711214</internalNodes>
          <leafValues>
            -2.2089132666587830e-001 2.3270623385906219e-001</leafValues></_>
        <_>
          <internalNodes>
            0 -1 213 -860865284 2134710713 1993809529 1062994896
            -180815126 1035616571 -48734978 -739106664</internalNodes>
          <leafValues>
            -2.3122446238994598e-001 2.0075938105583191e-001</leafValues></_>
        <_>
          <internalNodes>
            0 -1 441 -207971395 -617152772 -1090814093 2142451625
            -1667629603 -45682689 -975574353 -1182137968</internalNodes>
          <leafValues>
            -1.9352909922599792e-001 2.4226482212543488e-001</leafValues></_>
        <_>
          <internalNodes>
            0 -1 85 -16817264 1876701631 -2141298572 1922642940
            -1117641420 928411471 -1344003164 -684501951</internalNodes>
          <leafValues>
            -2.4743206799030304e-001 1.8687029182910919e-001</leafValues></_>
        <_>
          <internalNodes>
            0 -1 486 -18903552 1396681620 1458356148 -636803722
            -718131194 1383363622 1038485642 -234379582</internalNodes>
          <leafValues>
            -1.9589002430438995e-001 2.3478212952613831e-001</leafValues></_>
        <_>
          <internalNodes>
            0 -1 513 -155715437 -1573722274 -273724236 -1796870466
            -89080388 -1999051356 -348215382 -251935525</internalNodes>
          <leafValues>
            -1.4299976825714111e-001 2.9809203743934631e-001</leafValues></_>
        <_>
          <internalNodes>
            0 -1 473 -1616238084 -1074314540 995732062 -1094213896
            521019308 979073330 1064045755 863895852</internalNodes>
          <leafValues>
            -3.2027283310890198e-001 1.4222770929336548e-001</leafValues></_>
        <_>
          <internalNodes>
            0 -1 312 -1239929276 774212287 1036190033 -1780565001
            -110156307 -21758305 -357353475 -1462099980</internalNodes>
          <leafValues>
            -2.6345255970954895e-001 1.7121949791908264e-001</leafValues></_>
        <_>
          <internalNodes>
            0 -1 209 -1538484448 -60908549 2102645631 131863518
            -1724344909 -102573414 712293158 671220114</internalNodes>
          <leafValues>
            -2.8699591755867004e-001 1.4793896675109863e-001</leafValues></_>
        <_>
          <internalNodes>
            0 -1 58 -488128065 -830826314 1051255985 854730847
            -161074020 -30018188 -671949134 -134752777</internalNodes>
          <leafValues>
            -1.4677876234054565e-001 2.9056006669998169e-001</leafValues></_></weakClassifiers></_>
    <!-- stage 4 -->
    <_>
      <maxWeakCount>21</maxWeakCount>
      <stageThreshold>-1.7323883771896362e+000</stageThreshold>
      <weakClassifiers>
        <_>
          <internalNodes>
            0 -1 238 -1221290500 -537022497 -537267201 -188193
            -235095553 -36375656 -66561 -1685585752</internalNodes>
          <leafValues>
            -6.9429886341094971e-001 -1.7144364118576050e-001</leafValues></_>
        <_>
          <internalNodes>
            0 -1 375 -268389744 -774345804 494416221 -40038403
            -1643595342 -1201390957 -1211059265 -1148581240</internalNodes>
          <leafValues>
            -3.4343191981315613e-001 2.5196334719657898e-001</leafValues></_>
        <_>
          <internalNodes>
            0 -1 89 823145938 -33984270 2138782591 1072504151 1076934642
            -34122777 996884479 1004544610</internalNodes>
          <leafValues>
            -3.0723753571510315e-001 2.5371417403221130e-001</leafValues></_>
        <_>
          <internalNodes>
            0 -1 471 -23422476 -225568516 -1107318057 -104874023
            -1086931012 -1134534795 -1155670342 -1861549048</internalNodes>
          <leafValues>
            -2.3253914713859558e-001 3.1112158298492432e-001</leafValues></_>
        <_>
          <internalNodes>
            0 -1 336 -725569616 -761422868 -1879564324 -6471740
            1054119920 -3113476 -1225408530 -1752560984</internalNodes>
          <leafValues>
            -2.5466784834861755e-001 2.7266579866409302e-001</leafValues></_>
        <_>
          <internalNodes>
            0 -1 309 1418998900 -1261426956 -1186562049 -678613092
            -1074224642 -40518470 -1413992978 671612928</internalNodes>
          <leafValues>
            -2.8355237841606140e-001 2.3626624047756195e-001</leafValues></_>
        <_>
          <internalNodes>
            0 -1 505 -691552758 -194060354 754584414 1081013282
            -50332108 -185067804 -255918178 -524358454</internalNodes>
          <leafValues>
            -2.4015116691589355e-001 2.7678284049034119e-001</leafValues></_>
        <_>
          <internalNodes>
            0 -1 212 -74572040 -141289793 289546046 505097978
            -1090606342 970605406 -146391558 -1425920856</internalNodes>
          <leafValues>
            -2.6210302114486694e-001 2.4442832171916962e-001</leafValues></_>
        <_>
          <internalNodes>
            0 -1 266 -702567425 311278447 -1142948865 -1427292626
            -407388177 -39870737 -152831056 44196</internalNodes>
          <leafValues>
            -3.0902263522148132e-001 2.0319521427154541e-001</leafValues></_>
        <_>
          <internalNodes>
            0 -1 383 -559114268 -327230650 -898996241 -135329026
            -1166038044 -2040121409 -1159226206 -1281751640</internalNodes>
          <leafValues>
            -2.4377337098121643e-001 2.4999962747097015e-001</leafValues></_>
        <_>
          <internalNodes>
            0 -1 517 -134230862 -2139045660 -1810506772 -804273972
            -259022227 3424508 -241714032 1355801994</internalNodes>
          <leafValues>
            -2.5802463293075562e-001 2.3822107911109924e-001</leafValues></_>
        <_>
          <internalNodes>
            0 -1 112 -231302224 -144011402 -706171152 -147485020
            -183454558 71318972 1970317206 -137156982</internalNodes>
          <leafValues>
            -2.0003873109817505e-001 3.0804583430290222e-001</leafValues></_>
        <_>
          <internalNodes>
            0 -1 216 -1279650912 -136921207 -738324521 -1073741827
            -1148522326 -1242860866 -1346388053 -1451088896</internalNodes>
          <leafValues>
            -2.4877130985260010e-001 2.2523783147335052e-001</leafValues></_>
        <_>
          <internalNodes>
            0 -1 91 -224485246 -869865304 -891251680 -217206286
            -984305440 150796741 1206114994 -737738496</internalNodes>
          <leafValues>
            -2.4935099482536316e-001 2.1847331523895264e-001</leafValues></_>
        <_>
          <internalNodes>
            0 -1 320 -1439371279 -16998412 -730972961 -33607785
            -1128864787 -1143671059 -134758419 -1692916960</internalNodes>
          <leafValues>
            -2.1476925909519196e-001 2.5757423043251038e-001</leafValues></_>
        <_>
          <internalNodes>
            0 -1 161 -99942732 1962184428 -1073865516 904275588
            -998991879 98856901 -6898705 -89521018</internalNodes>
          <leafValues>
            -2.1192656457424164e-001 2.6022848486900330e-001</leafValues></_>
        <_>
          <internalNodes>
            0 -1 521 -1711276106 -1998673200 995699256 -1787868427
            -1387333979 79116964 -1226136588 -2141224750</internalNodes>
          <leafValues>
            -2.3687613010406494e-001 2.2964707016944885e-001</leafValues></_>
        <_>
          <internalNodes>
            0 -1 414 -89606951 -19222895 1739583063 -68206612 -4260105
            -50500249 -1094860801 -1094582256</internalNodes>
          <leafValues>
            -2.0675630867481232e-001 2.6389870047569275e-001</leafValues></_>
        <_>
          <internalNodes>
            0 -1 41 -756037921 -189994022 -1183210820 -6302994
            1559551600 -1229660331 -160224493 -134744281</internalNodes>
          <leafValues>
            -1.4732760190963745e-001 3.7724837660789490e-001</leafValues></_>
        <_>
          <internalNodes>
            0 -1 146 609525540 -1651180555 -271667459 -1879195910
            1899397093 -1231950619 -179726368 -1396424786</internalNodes>
          <leafValues>
            -2.5384035706520081e-001 2.1529348194599152e-001</leafValues></_>
        <_>
          <internalNodes>
            0 -1 104 1205673756 752205278 536685327 -335761419
            -305299755 1957968672 -52086102 604320676</internalNodes>
          <leafValues>
            -3.3406606316566467e-001 1.6057492792606354e-001</leafValues></_></weakClassifiers></_>
    <!-- stage 5 -->
    <_>
      <maxWeakCount>25</maxWeakCount>
      <stageThreshold>-1.7943042516708374e+000</stageThreshold>
      <weakClassifiers>
        <_>
          <internalNodes>
            0 -1 170 -1082310657 -16385 -138960897 -33570817 -2113537
            -4194369 -2113537 -1073988640</internalNodes>
          <leafValues>
            -6.6327202320098877e-001 -1.4378237724304199e-001</leafValues></_>
        <_>
          <internalNodes>
            0 -1 281 268441076 -604141831 1876803583 -36889344
            -1107511623 -1298198 -72171541 33554432</internalNodes>
          <leafValues>
            -4.6757420897483826e-001 9.3057841062545776e-002</leafValues></_>
        <_>
          <internalNodes>
            0 -1 207 -173111816 -33677313 2117828569 -100852739
            -373360709 -1095331854 -88411142 -1987968886</internalNodes>
          <leafValues>
            -2.1870489418506622e-001 2.9842588305473328e-001</leafValues></_>
        <_>
          <internalNodes>
            0 -1 445 -1123246948 -537121539 -1074288387 -1243668752
            999994588 -8635299 -1610838081 -1685123944</internalNodes>
          <leafValues>
            -2.2872425615787506e-001 2.5727114081382751e-001</leafValues></_>
        <_>
          <internalNodes>
            0 -1 260 -1520601291 1017183741 -290455556 -1291911225
            -2097411 -1227408400 -33703044 146551336</internalNodes>
          <leafValues>
            -2.9548788070678711e-001 2.0542939007282257e-001</leafValues></_>
        <_>
          <internalNodes>
            0 -1 479 -179896652 -644305136 -1477037032 -141167488
            -1182747512 -1154474544 -150983942 -2119498066</internalNodes>
          <leafValues>
            -2.0690658688545227e-001 2.6700592041015625e-001</leafValues></_>
        <_>
          <internalNodes>
            0 -1 502 -71305677 385351420 1836465971 -1470176258
            -184965380 2087496798 -285231366 -790175078</internalNodes>
          <leafValues>
            -1.4798867702484131e-001 3.1465703248977661e-001</leafValues></_>
        <_>
          <internalNodes>
            0 -1 242 -65916976 888288230 853041080 284635728 -1153666384
            930413461 -812764993 813827712</internalNodes>
          <leafValues>
            -3.5913473367691040e-001 1.4183378219604492e-001</leafValues></_>
        <_>
          <internalNodes>
            0 -1 99 -185876798 1546235306 889018352 -4223840 432910004
            66336529 393492128 -753949278</internalNodes>
          <leafValues>
            -1.8753698468208313e-001 2.6974341273307800e-001</leafValues></_>
        <_>
          <internalNodes>
            0 -1 229 -733703472 -105505572 -1392757257 -100722964
            -1178818428 -1138196484 2129198057 -1953890168</internalNodes>
          <leafValues>
            -2.1270646154880524e-001 2.3425304889678955e-001</leafValues></_>
        <_>
          <internalNodes>
            0 -1 272 1597279672 -721928207 -2571 -34101383 -134285343
            -152125509 -218379873 -2020988246</internalNodes>
          <leafValues>
            -1.8927742540836334e-001 2.4959306418895721e-001</leafValues></_>
        <_>
          <internalNodes>
            0 -1 430 -1106628464 2078255956 1834990780 -44043250
            -91252050 -524583286 -972384609 -1307967480</internalNodes>
          <leafValues>
            -2.3880159854888916e-001 1.9919811189174652e-001</leafValues></_>
        <_>
          <internalNodes>
            0 -1 47 1289514847 2113863666 -271139184 -89325648
            1689610229 1115222840 -537512139 1732539394</internalNodes>
          <leafValues>
            -2.9679706692695618e-001 1.5661320090293884e-001</leafValues></_>
        <_>
          <internalNodes>
            0 -1 347 -781174824 -19103746 -1629841062 -1228861489
            -83577963 -1433130477 -1295189257 -1591859380</internalNodes>
          <leafValues>
            -2.3842139542102814e-001 1.9980938732624054e-001</leafValues></_>
        <_>
          <internalNodes>
            0 -1 77 -599477380 -1728517774 -1845515393 1879024207
            -168496656 -39789710 -1445693707 64235264</internalNodes>
          <leafValues>
            -2.8481754660606384e-001 1.5825663506984711e-001</leafValues></_>
        <_>
          <internalNodes>
            0 -1 489 -163605368 -1834030680 1051474684 -1836207920
            -681133952 -1536937996 -784565302 -1045191538</internalNodes>
          <leafValues>
            -1.8782085180282593e-001 2.4859088659286499e-001</leafValues></_>
        <_>
          <internalNodes>
            0 -1 255 2045576740 539237914 -3289413 -1124554066 872263477
            -1334739081 -1411575260 680835874</internalNodes>
          <leafValues>
            -3.4595844149589539e-001 1.3136288523674011e-001</leafValues></_>
        <_>
          <internalNodes>
            0 -1 51 -219511118 1291364590 -323704047 -757127992
            907325108 1080039075 1399883698 -245922890</internalNodes>
          <leafValues>
            -1.9997735321521759e-001 2.3088909685611725e-001</leafValues></_>
        <_>
          <internalNodes>
            0 -1 270 717569764 683523780 938336932 574078374 -1736501299
            -1525825793 -1218498252 798852</internalNodes>
          <leafValues>
            -4.9144867062568665e-001 9.5180258154869080e-002</leafValues></_>
        <_>
          <internalNodes>
            0 -1 420 -1322206480 -1804587876 849009137 -2672920
            -105234440 -574825844 -1750223910 -1448214304</internalNodes>
          <leafValues>
            -2.3959951102733612e-001 1.9496442377567291e-001</leafValues></_>
        <_>
          <internalNodes>
            0 -1 514 -285216974 1501158 -207644116 -529604618
            -1149958796 748962012 142224946 1087629978</internalNodes>
          <leafValues>
            -2.3689875006675720e-001 1.9180694222450256e-001</leafValues></_>
        <_>
          <internalNodes>
            0 -1 310 941897396 -1632489540 1743203311 -1198221829
            1463575741 -67282060 1600405492 310386688</internalNodes>
          <leafValues>
            -3.8196086883544922e-001 1.2253867834806442e-001</leafValues></_>
        <_>
          <internalNodes>
            0 -1 140 -695564152 -68188024 332087408 -573605688
            -348780584 -1185352512 1598862292 -1926101824</internalNodes>
          <leafValues>
            -2.4846985936164856e-001 1.9108235836029053e-001</leafValues></_>
        <_>
          <internalNodes>
            0 -1 79 -226536554 -187209794 -152142017 -254279690
            -139365263 911619842 -1015634189 -750615374</internalNodes>
          <leafValues>
            -1.9958551228046417e-001 2.3526492714881897e-001</leafValues></_>
        <_>
          <internalNodes>
            0 -1 403 127706288 -752174280 818573808 -1862271108
            -755699011 1878577660 283747818 983312512</internalNodes>
          <leafValues>
            -3.6598420143127441e-001 1.3147434592247009e-001</leafValues></_></weakClassifiers></_>
    <!-- stage 6 -->
    <_>
      <maxWeakCount>30</maxWeakCount>
      <stageThreshold>-1.7265625000000000e+000</stageThreshold>
      <weakClassifiers>
        <_>
          <internalNodes>
            0 -1 283 1897462781 -136333313 -1612718081 -4342787 -149505
            -131074 -213009 -1366547958</internalNodes>
          <leafValues>
            -6.4157706499099731e-001 -2.0563991367816925e-001</leafValues></_>
        <_>
          <internalNodes>
            0 -1 203 -704848395 -69427779 -2621953 -536901699 -67569416
            -34153735 -339951618 -1881666920</internalNodes>
          <leafValues>
            -2.6287874579429626e-001 2.3167943954467773e-001</leafValues></_>
        <_>
          <internalNodes>
            0 -1 474 -1570316803 14441724 267857141 1040024313
            -1350844935 419410427 -1087915890 81520878</internalNodes>
          <leafValues>
            -2.8275087475776672e-001 1.7282710969448090e-001</leafValues></_>
        <_>
          <internalNodes>
            0 -1 273 342915576 -185291809 2130649085 -1745278081
            -306908235 -1208322644 -4309057 734276384</internalNodes>
          <leafValues>
            -2.7075484395027161e-001 1.6861873865127563e-001</leafValues></_>
        <_>
          <internalNodes>
            0 -1 399 -1778731108 -58937604 -1368113261 -1215418644
            -1338990671 -806043660 -986692 -1563555320</internalNodes>
          <leafValues>
            -1.9015683233737946e-001 2.2019205987453461e-001</leafValues></_>
        <_>
          <internalNodes>
            0 -1 73 -556009593 -201850933 -26282179 -706741650
            -143494044 897013029 -269238302 -144448953</internalNodes>
          <leafValues>
            -1.3772693276405334e-001 3.0199179053306580e-001</leafValues></_>
        <_>
          <internalNodes>
            0 -1 287 1360314036 811122072 -34922723 -1375912301
            -79595023 -1611071587 -17482856 747453060</internalNodes>
          <leafValues>
            -2.2644157707691193e-001 1.8281739950180054e-001</leafValues></_>
        <_>
          <internalNodes>
            0 -1 463 -37755343 284753834 -1361318052 -923406428
            -23208024 671997629 2137566780 -2012218194</internalNodes>
          <leafValues>
            -2.0637600123882294e-001 2.0736424624919891e-001</leafValues></_>
        <_>
          <internalNodes>
            0 -1 484 -90031824 -567244960 -1140855132 1542373864
            1019195837 -330787075 -1082266496 -2147344352</internalNodes>
          <leafValues>
            -2.6379621028900146e-001 1.5427443385124207e-001</leafValues></_>
        <_>
          <internalNodes>
            0 -1 8 -857174025 -1116027858 -1077960713 -1309056
            1164991989 -1213825551 333805431 666335088</internalNodes>
          <leafValues>
            -2.4505978822708130e-001 1.7081502079963684e-001</leafValues></_>
        <_>
          <internalNodes>
            0 -1 449 1606884404 610597936 -289622166 941682686 -43708912
            -197605200 -196330484 -2131447838</internalNodes>
          <leafValues>
            -3.1730946898460388e-001 1.2986256182193756e-001</leafValues></_>
        <_>
          <internalNodes>
            0 -1 306 1412731508 -1292612114 398137400 -1669391131
            905025489 1051827870 804011774 678703280</internalNodes>
          <leafValues>
            -3.4357386827468872e-001 1.1694392561912537e-001</leafValues></_>
        <_>
          <internalNodes>
            0 -1 332 -533420160 -1208317243 -1678344196 -1260523824
            -136698472 2046564861 -1145421860 -1343353696</internalNodes>
          <leafValues>
            -2.1593342721462250e-001 1.8634565174579620e-001</leafValues></_>
        <_>
          <internalNodes>
            0 -1 261 -128020740 -790561563 -1107894659 -101926230
            -422989141 1039511452 -537093154 -1439028726</internalNodes>
          <leafValues>
            -1.9557832181453705e-001 2.1900792419910431e-001</leafValues></_>
        <_>
          <internalNodes>
            0 -1 504 -655390510 -118372654 1861558709 -1205621522
            -537426942 -261812636 -48827766 -529025910</internalNodes>
          <leafValues>
            -1.6144891083240509e-001 2.4335636198520660e-001</leafValues></_>
        <_>
          <internalNodes>
            0 -1 365 -2136472176 -100811791 -23218690 -2101258
            -1080104195 -67313677 -1150373122 -1574827008</internalNodes>
          <leafValues>
            -2.6837325096130371e-001 1.5071767568588257e-001</leafValues></_>
        <_>
          <internalNodes>
            0 -1 45 1086652148 -595810314 -352915608 -1481085784
            1399071217 -798720014 1876760341 2097628674</internalNodes>
          <leafValues>
            -2.8198078274726868e-001 1.4695994555950165e-001</leafValues></_>
        <_>
          <internalNodes>
            0 -1 1 -1566070878 -1408848134 -1913690175 -1041388692
            -1577132320 -1215837501 1691445156 -747167632</internalNodes>
          <leafValues>
            -2.2683440148830414e-001 1.7178533971309662e-001</leafValues></_>
        <_>
          <internalNodes>
            0 -1 379 1048096296 -245500648 -587825153 -1703309348
            -1151540372 -34184683 -1866568986 -1179770824</internalNodes>
          <leafValues>
            -2.4989315867424011e-001 1.6532570123672485e-001</leafValues></_>
        <_>
          <internalNodes>
            0 -1 512 595047280 67415028 1070595064 -1932640012 -26307658
            -1945063835 1154323580 141284446</internalNodes>
          <leafValues>
            -2.6217219233512878e-001 1.4745217561721802e-001</leafValues></_>
        <_>
          <internalNodes>
            0 -1 118 113553220 571751934 566770728 1793079980 1968514940
            1511336756 -134991688 12596068</internalNodes>
          <leafValues>
            -5.3983056545257568e-001 7.6506823301315308e-002</leafValues></_>
        <_>
          <internalNodes>
            0 -1 15 39370544 485947327 -807555418 636657380 1415854420
            2006253521 -1728991996 398795524</internalNodes>
          <leafValues>
            -3.6609187722206116e-001 1.0198424756526947e-001</leafValues></_>
        <_>
          <internalNodes>
            0 -1 493 -80759884 -764100960 1574977332 -1722970420
            2093852112 -1816779076 2067271674 -1920007126</internalNodes>
          <leafValues>
            -1.7745816707611084e-001 2.2725391387939453e-001</leafValues></_>
        <_>
          <internalNodes>
            0 -1 457 -216095852 -657710090 1201367476 -1148449976
            -1564166670 -1210445408 -738972500 -1648482808</internalNodes>
          <leafValues>
            -2.0591348409652710e-001 1.9920748472213745e-001</leafValues></_>
        <_>
          <internalNodes>
            0 -1 296 1952980796 645410164 2146541047 -1879257628
            1810665396 -152013316 -1084997776 178523264</internalNodes>
          <leafValues>
            -3.6367562413215637e-001 1.1125483363866806e-001</leafValues></_>
        <_>
          <internalNodes>
            0 -1 105 -788880232 -2054310014 -1565584096 -1174721584
            1434231691 1039755196 -134871106 -1110989170</internalNodes>
          <leafValues>
            -1.6573946177959442e-001 2.4441032111644745e-001</leafValues></_>
        <_>
          <internalNodes>
            0 -1 251 2138361616 78125756 -1350047937 -1426376559
            -1086885417 1927119540 -122354892 12904965</internalNodes>
          <leafValues>
            -3.6709481477737427e-001 1.0992818325757980e-001</leafValues></_>
        <_>
          <internalNodes>
            0 -1 178 -1901983520 318674423 986357008 853159160 307199348
            974987777 1705524956 604648448</internalNodes>
          <leafValues>
            -4.3315324187278748e-001 8.7712340056896210e-002</leafValues></_>
        <_>
          <internalNodes>
            0 -1 70 518141269 -1493254677 -589521930 749506267
            1041503520 2020390699 -179950460 607397680</internalNodes>
          <leafValues>
            -3.6524078249931335e-001 1.0239177197217941e-001</leafValues></_>
        <_>
          <internalNodes>
            0 -1 396 1897836976 821886614 1456815639 -1795313125
            -10610704 889021901 1824794894 8490554</internalNodes>
          <leafValues>
            -2.7081876993179321e-001 1.3789203763008118e-001</leafValues></_></weakClassifiers></_>
    <!-- stage 7 -->
    <_>
      <maxWeakCount>31</maxWeakCount>
      <stageThreshold>-1.6951003074645996e+000</stageThreshold>
      <weakClassifiers>
        <_>
          <internalNodes>
            0 -1 309 1955872253 -2050 -1048577 -32771 -1073889537
            -6291462 -285544449 -1431819512</internalNodes>
          <leafValues>
            -6.5356171131134033e-001 -2.4356144666671753e-001</leafValues></_>
        <_>
          <internalNodes>
            0 -1 363 -1091027460 -201539591 939134719 -1073902851
            -1132479491 -1258782796 1069367295 1039416956</internalNodes>
          <leafValues>
            -3.8720592856407166e-001 9.6497349441051483e-002</leafValues></_>
        <_>
          <internalNodes>
            0 -1 218 813709237 464787666 -33832969 -1073793861 997768953
            -1159153154 -1616102449 713818112</internalNodes>
          <leafValues>
            -2.6357987523078918e-001 1.9185116887092590e-001</leafValues></_>
        <_>
          <internalNodes>
            0 -1 410 -185084459 284447857 -1247814017 501080823
            2134884351 -1325707521 -155809 12431902</internalNodes>
          <leafValues>
            -2.2048425674438477e-001 2.1038505434989929e-001</leafValues></_>
        <_>
          <internalNodes>
            0 -1 265 -1653318147 -8585812 -1163265 -1073873283 -4407819
            -4276492 -268555329 -1096151382</internalNodes>
          <leafValues>
            -1.0837190598249435e-001 3.1983312964439392e-001</leafValues></_>
        <_>
          <internalNodes>
            0 -1 26 -23810606 -1275295746 -45570147 227575296 1973427505
            854921843 -26128496 1986347589</internalNodes>
          <leafValues>
            -2.9951077699661255e-001 1.3315269351005554e-001</leafValues></_>
        <_>
          <internalNodes>
            0 -1 87 504504112 380730687 -1629208769 -1124192270
            909128048 938871270 2142257151 1700935202</internalNodes>
          <leafValues>
            -3.2736682891845703e-001 1.2823045253753662e-001</leafValues></_>
        <_>
          <internalNodes>
            0 -1 13 753843382 1806760959 -6410328 -1880201594 1089762416
            -1196099081 -144277600 -1051630138</internalNodes>
          <leafValues>
            -2.8844904899597168e-001 1.2653054296970367e-001</leafValues></_>
        <_>
          <internalNodes>
            0 -1 80 -17242664 -957681677 -19595660 -428566574 540025412
            2057781815 1730500536 1076118788</internalNodes>
          <leafValues>
            -3.6773860454559326e-001 1.0575076192617416e-001</leafValues></_>
        <_>
          <internalNodes>
            0 -1 511 -285216972 542037685 -1298975644 -2140618580
            -255263184 1755319188 -238683548 1086501606</internalNodes>
          <leafValues>
            -2.7921199798583984e-001 1.3083571195602417e-001</leafValues></_>
        <_>
          <internalNodes>
            0 -1 259 1415875572 -721897482 -1345904801 -1615544321
            -160371977 -559362062 -271663189 -1363344856</internalNodes>
          <leafValues>
            -1.7004577815532684e-001 2.1990849077701569e-001</leafValues></_>
        <_>
          <internalNodes>
            0 -1 315 -1719748652 -134971654 2113880061 -136471117
            -1087085064 -1481083531 -1079263267 -1073793606</internalNodes>
          <leafValues>
            -1.4770759642124176e-001 2.5168266892433167e-001</leafValues></_>
        <_>
          <internalNodes>
            0 -1 361 175147212 -319635464 -545259553 -1904292427
            -969694354 -1611613713 -1890259973 779289144</internalNodes>
          <leafValues>
            -2.5362917780876160e-001 1.4543145895004272e-001</leafValues></_>
        <_>
          <internalNodes>
            0 -1 183 -1602170704 -605831264 -1363316777 -168871580
            -447567639 1721562054 -2084654150 -2142370688</internalNodes>
          <leafValues>
            -2.2298189997673035e-001 1.6270834207534790e-001</leafValues></_>
        <_>
          <internalNodes>
            0 -1 40 -187247966 -772899422 -596316176 -43086102
            1668591600 1995953636 2010244994 -169384365</internalNodes>
          <leafValues>
            -1.7811860144138336e-001 2.0450013875961304e-001</leafValues></_>
        <_>
          <internalNodes>
            0 -1 277 1684026420 -766837067 901714064 1047861219
            -1279142627 -34539017 -269404492 617951632</internalNodes>
          <leafValues>
            -3.1232404708862305e-001 1.1582111567258835e-001</leafValues></_>
        <_>
          <internalNodes>
            0 -1 519 -1191200528 1082820940 -1051494532 -724138632
            -499386608 -2067519026 -454351904 -1062472058</internalNodes>
          <leafValues>
            -2.1418057382106781e-001 1.7381158471107483e-001</leafValues></_>
        <_>
          <internalNodes>
            0 -1 498 -1939433232 -118305599 1064251384 -134272912
            -2062304011 -1162084875 14826992 -252475360</internalNodes>
          <leafValues>
            -1.9140557944774628e-001 1.9421337544918060e-001</leafValues></_>
        <_>
          <internalNodes>
            0 -1 227 12620788 -90923140 125513636 -1901316894 -448383051
            -1225508906 -271502740 513016608</internalNodes>
          <leafValues>
            -2.6982641220092773e-001 1.3685356080532074e-001</leafValues></_>
        <_>
          <internalNodes>
            0 -1 469 1795108763 150015739 -1458831475 267227070
            -1079804163 -254291969 -9588987 16614425</internalNodes>
          <leafValues>
            -2.4966436624526978e-001 1.4966891705989838e-001</leafValues></_>
        <_>
          <internalNodes>
            0 -1 65 -142682723 -105120019 2063433663 -2103818 -979206667
            -537611 -13435073 -8952201</internalNodes>
          <leafValues>
            -1.2798216938972473e-001 3.0886796116828918e-001</leafValues></_>
        <_>
          <internalNodes>
            0 -1 239 -558352136 2041525755 -1301832108 -1175492610
            -1168642152 -190565745 -33637441 -2140005246</internalNodes>
          <leafValues>
            -1.9495108723640442e-001 1.9061636924743652e-001</leafValues></_>
        <_>
          <internalNodes>
            0 -1 487 -676093304 505934832 -1392663400 -1136751025
            642581120 876066486 -1091687702 -522049782</internalNodes>
          <leafValues>
            -2.1648049354553223e-001 1.7744559049606323e-001</leafValues></_>
        <_>
          <internalNodes>
            0 -1 290 476064608 3694040 1052717016 -1396791690 1066764149
            -302728208 1542793892 -1604044020</internalNodes>
          <leafValues>
            -3.7569031119346619e-001 9.9005848169326782e-002</leafValues></_>
        <_>
          <internalNodes>
            0 -1 491 -596199740 -779830144 -1780861258 324906196
            -684673872 326179309 32518060 -1330957562</internalNodes>
          <leafValues>
            -1.9467651844024658e-001 1.9196945428848267e-001</leafValues></_>
        <_>
          <internalNodes>
            0 -1 168 104635697 -1635799239 -8683684 748560375 534610801
            -1108402442 519714164 -1480282624</internalNodes>
          <leafValues>
            -2.5157186388969421e-001 1.5238498151302338e-001</leafValues></_>
        <_>
          <internalNodes>
            0 -1 247 -2143813580 -1903186767 -1747554431 1473069041
            1802534338 1006414814 -1094964299 -1568987648</internalNodes>
          <leafValues>
            -2.5391966104507446e-001 1.4482598006725311e-001</leafValues></_>
        <_>
          <internalNodes>
            0 -1 393 1895083156 13166764 2077044524 -2002877796
            -185013579 -1327105040 -60606068 15197871</internalNodes>
          <leafValues>
            -2.8911525011062622e-001 1.3074885308742523e-001</leafValues></_>
        <_>
          <internalNodes>
            0 -1 461 -1537044048 -1244119636 -59016748 -573764956
            506324153 -19112787 1018180016 1003167912</internalNodes>
          <leafValues>
            -2.3728436231613159e-001 1.5406265854835510e-001</leafValues></_>
        <_>
          <internalNodes>
            0 -1 319 -155928767 -339935251 -102918945 2061471734
            -117461013 -546308283 -369252443 1068183370</internalNodes>
          <leafValues>
            -1.6359829902648926e-001 2.2055494785308838e-001</leafValues></_>
        <_>
          <internalNodes>
            0 -1 245 -1744170528 1977409325 -1121440005 2044546021
            1558724315 -171981084 1041918910 679608320</internalNodes>
          <leafValues>
            -2.9863598942756653e-001 1.1928780376911163e-001</leafValues></_></weakClassifiers></_>
    <!-- stage 8 -->
    <_>
      <maxWeakCount>35</maxWeakCount>
      <stageThreshold>-1.5511256456375122e+000</stageThreshold>
      <weakClassifiers>
        <_>
          <internalNodes>
            0 -1 59 -1025 -524366 -137429025 -788749 -731382953
            -833130716 -136055245 -76287658</internalNodes>
          <leafValues>
            -6.0720694065093994e-001 -2.4321475625038147e-001</leafValues></_>
        <_>
          <internalNodes>
            0 -1 322 -169538476 1366296788 -1107314499 -570458386
            -12599831 -172307459 -1078247619 674243584</internalNodes>
          <leafValues>
            -3.6445075273513794e-001 7.6690301299095154e-002</leafValues></_>
        <_>
          <internalNodes>
            0 -1 156 1179423236 751107772 98315048 -1393644866
            2145744880 -514558012 -1354790144 71609870</internalNodes>
          <leafValues>
            -4.2830544710159302e-001 8.1276051700115204e-002</leafValues></_>
        <_>
          <internalNodes>
            0 -1 278 829987060 15840440 756792315 -1644694290
            -1316226307 -1531707909 921124861 418608698</internalNodes>
          <leafValues>
            -2.3088185489177704e-001 1.6451233625411987e-001</leafValues></_>
        <_>
          <internalNodes>
            0 -1 475 -27885432 -748315234 -132829541 -260849444
            -16834550 -1662157618 -86722930 -2113268222</internalNodes>
          <leafValues>
            -1.8471464514732361e-001 1.9140982627868652e-001</leafValues></_>
        <_>
          <internalNodes>
            0 -1 516 -530433 210222332 -1073775169 -654865229 -134531086
            213687484 -253900956 -795871702</internalNodes>
          <leafValues>
            -1.2408813089132309e-001 2.8300309181213379e-001</leafValues></_>
        <_>
          <internalNodes>
            0 -1 482 -1113411852 -59997236 752617980 -570454296
            -30890508 -1760797515 1311769788 -1685191544</internalNodes>
          <leafValues>
            -2.0524795353412628e-001 1.6732369363307953e-001</leafValues></_>
        <_>
          <internalNodes>
            0 -1 37 1942752610 1316793855 -1368097368 -1145263002
            1504970160 150248756 1949621409 73400610</internalNodes>
          <leafValues>
            -3.8588184118270874e-001 8.7778672575950623e-002</leafValues></_>
        <_>
          <internalNodes>
            0 -1 325 -1341915088 -510279711 -1302347793 -192770
            1874699091 -50533643 -151068690 918528</internalNodes>
          <leafValues>
            -3.1659477949142456e-001 1.0068201273679733e-001</leafValues></_>
        <_>
          <internalNodes>
            0 -1 468 -423630351 -1331645732 -16777345 -101734476
            -1065095 -663421507 -303562987 -2000683329</internalNodes>
          <leafValues>
            -1.4766900241374969e-001 2.2641232609748840e-001</leafValues></_>
        <_>
          <internalNodes>
            0 -1 119 -590967626 -1178432526 -1360117776 1040001712
            401778100 720928628 -88864866 -1280636278</internalNodes>
          <leafValues>
            -1.5381751954555511e-001 2.1544536948204041e-001</leafValues></_>
        <_>
          <internalNodes>
            0 -1 208 -1242919024 -655546637 -88753153 2147440315
            -1375551620 -1098998023 -138799169 -1996357494</internalNodes>
          <leafValues>
            -1.8227216601371765e-001 1.7913028597831726e-001</leafValues></_>
        <_>
          <internalNodes>
            0 -1 21 1795075942 1102227188 -1618797189 -42798538
            -78078752 1459490926 -40831216 -143133695</internalNodes>
          <leafValues>
            -1.9356855750083923e-001 1.6459870338439941e-001</leafValues></_>
        <_>
          <internalNodes>
            0 -1 157 -589394196 -1174552648 1022381306 -1276207588
            -465795176 721250104 -1571504135 -1417540710</internalNodes>
          <leafValues>
            -1.7220234870910645e-001 1.9296552240848541e-001</leafValues></_>
        <_>
          <internalNodes>
            0 -1 39 1154260708 486324221 -475219926 -1112539254
            2142713269 1884312452 -17548084 71639558</internalNodes>
          <leafValues>
            -3.0144575238227844e-001 1.0995308309793472e-001</leafValues></_>
        <_>
          <internalNodes>
            0 -1 136 -139577036 339484906 -1478607188 -1105715526
            -101244367 727605256 1005992680 151588</internalNodes>
          <leafValues>
            -3.4431812167167664e-001 9.4034053385257721e-002</leafValues></_>
        <_>
          <internalNodes>
            0 -1 413 163526768 12343412 -1478494127 1039051996
            -1180731395 83779255 493599317 745926149</internalNodes>
          <leafValues>
            -3.1934329867362976e-001 1.0195492953062057e-001</leafValues></_>
        <_>
          <internalNodes>
            0 -1 520 -104881737 148659952 -563610156 -580399370
            -34235148 435568373 -33622364 -796393710</internalNodes>
          <leafValues>
            -1.4762239158153534e-001 2.2668090462684631e-001</leafValues></_>
        <_>
          <internalNodes>
            0 -1 219 365215719 -1160512522 1908909951 -276121680
            -2804780 -143344141 -528976 -1374931512</internalNodes>
          <leafValues>
            -1.8057645857334137e-001 1.8503277003765106e-001</leafValues></_>
        <_>
          <internalNodes>
            0 -1 50 172271970 1626142719 620543752 62263278 1573925680
            787760437 -608587516 1657864832</internalNodes>
          <leafValues>
            -3.5874336957931519e-001 9.2023871839046478e-002</leafValues></_>
        <_>
          <internalNodes>
            0 -1 71 1279583492 -1735592995 -1635415521 1609281514
            2071063521 -53158414 -69129686 -1379578074</internalNodes>
          <leafValues>
            -1.8075266480445862e-001 1.7939378321170807e-001</leafValues></_>
        <_>
          <internalNodes>
            0 -1 483 -1246560536 -797268806 738047615 -604662660
            1023356302 -1429917836 -1112172874 -616885224</internalNodes>
          <leafValues>
            -1.5842939913272858e-001 2.0725683867931366e-001</leafValues></_>
        <_>
          <internalNodes>
            0 -1 389 1905781301 38858039 -275120213 1823394671 -30971122
            -192939283 -321491442 11463466</internalNodes>
          <leafValues>
            -2.3206424713134766e-001 1.4406841993331909e-001</leafValues></_>
        <_>
          <internalNodes>
            0 -1 284 -795601464 -1485128791 506663782 934241757
            -554893480 329029247 1333165999 -2081811808</internalNodes>
          <leafValues>
            -2.0869928598403931e-001 1.5719324350357056e-001</leafValues></_>
        <_>
          <internalNodes>
            0 -1 19 -209212486 -879827062 1328627569 -613430086
            -1659521136 1626012582 -1630029 -204495182</internalNodes>
          <leafValues>
            -1.3329328596591949e-001 2.4662005901336670e-001</leafValues></_>
        <_>
          <internalNodes>
            0 -1 217 2100320 -521702174 -1129171085 -124944476
            1589390967 628649180 -813740508 541065728</internalNodes>
          <leafValues>
            -4.3311658501625061e-001 7.6376810669898987e-002</leafValues></_>
        <_>
          <internalNodes>
            0 -1 340 577177521 -23282966 1895540477 655520981 1795127259
            -1697645891 -1990387498 -1577706844</internalNodes>
          <leafValues>
            -2.3143945634365082e-001 1.3692460954189301e-001</leafValues></_>
        <_>
          <internalNodes>
            0 -1 510 -151003760 -795822642 -834733898 1948559793
            -139155776 -187543594 -1214508402 -1845757798</internalNodes>
          <leafValues>
            -1.5657697618007660e-001 2.1322976052761078e-001</leafValues></_>
        <_>
          <internalNodes>
            0 -1 206 1388589196 1559543043 1954420733 -554978434
            -194640656 -1639933492 -554750691 680337928</internalNodes>
          <leafValues>
            -2.4946731328964233e-001 1.3699027895927429e-001</leafValues></_>
        <_>
          <internalNodes>
            0 -1 192 1204632575 2095972337 795945013 -395415577
            -206625027 -310873212 -1113626736 -220337074</internalNodes>
          <leafValues>
            -1.3928072154521942e-001 2.3842836916446686e-001</leafValues></_>
        <_>
          <internalNodes>
            0 -1 193 -426604852 -1612074010 2062813809 947752890
            1033217436 -1343197572 -33911865 -1345649524</internalNodes>
          <leafValues>
            -1.6885478794574738e-001 1.9411797821521759e-001</leafValues></_>
        <_>
          <internalNodes>
            0 -1 412 -1527498412 936107228 649964285 -1629690041
            846477041 -1665172611 -1908661004 540708032</internalNodes>
          <leafValues>
            -3.2286125421524048e-001 1.0315515100955963e-001</leafValues></_>
        <_>
          <internalNodes>
            0 -1 387 -1300079460 -520350760 -92379137 -52478594
            880193482 2096033755 -539344930 -1306392576</internalNodes>
          <leafValues>
            -2.2662140429019928e-001 1.4507296681404114e-001</leafValues></_>
        <_>
          <internalNodes>
            0 -1 513 -788815344 -1058870310 1452182198 904248828
            1888492548 5824272 -1166253154 -520920950</internalNodes>
          <leafValues>
            -1.9118699431419373e-001 1.6915637254714966e-001</leafValues></_>
        <_>
          <internalNodes>
            0 -1 160 1155344100 413707908 789877192 754121722 326188612
            616617132 -140152024 610806912</internalNodes>
          <leafValues>
            -4.3179133534431458e-001 7.3100969195365906e-002</leafValues></_></weakClassifiers></_>
    <!-- stage 9 -->
    <_>
      <maxWeakCount>35</maxWeakCount>
      <stageThreshold>-1.5603647232055664e+000</stageThreshold>
      <weakClassifiers>
        <_>
          <internalNodes>
            0 -1 92 -269494277 -76635158 -1177559553 -541039 -841756693
            -5242885 -286304801 -2285</internalNodes>
          <leafValues>
            -5.9660106897354126e-001 -1.4492201805114746e-001</leafValues></_>
        <_>
          <internalNodes>
            0 -1 474 -1367870217 100160924 -1361179532 830091837
            602877433 140473727 245275901 83876223</internalNodes>
          <leafValues>
            -3.4488126635551453e-001 8.2041434943675995e-002</leafValues></_>
        <_>
          <internalNodes>
            0 -1 7 -339806529 -276631758 2147019257 -148882672
            -892304216 -830022211 2045788409 -596159277</internalNodes>
          <leafValues>
            -1.8235227465629578e-001 2.3620811104774475e-001</leafValues></_>
        <_>
          <internalNodes>
            0 -1 88 -291311214 -705372260 -1153860493 1046624883
            -1506787982 2137071731 -304660741 -277643421</internalNodes>
          <leafValues>
            -1.8664298951625824e-001 2.0331239700317383e-001</leafValues></_>
        <_>
          <internalNodes>
            0 -1 452 -587734496 271892042 -1392604640 2663594 1682392064
            1817471042 -1067142144 1617684291</internalNodes>
          <leafValues>
            -3.1504803895950317e-001 1.5290902554988861e-001</leafValues></_>
        <_>
          <internalNodes>
            0 -1 515 -422654960 816906208 1901586877 967898420
            -1061898948 3684340 -1187772240 -1061690133</internalNodes>
          <leafValues>
            -2.0381228625774384e-001 1.7680728435516357e-001</leafValues></_>
        <_>
          <internalNodes>
            0 -1 110 1079038474 610051978 661233722 1939160391
            -1795887220 408223696 1915473903 -884111858</internalNodes>
          <leafValues>
            -2.0933516323566437e-001 1.6710510849952698e-001</leafValues></_>
        <_>
          <internalNodes>
            0 -1 63 -102838665 -6819921 -566562819 -374163510
            -1026279500 -675914953 -690178114 -143394953</internalNodes>
          <leafValues>
            -1.2122753262519836e-001 2.7432939410209656e-001</leafValues></_>
        <_>
          <internalNodes>
            0 -1 135 -716992310 338861634 499098831 536446591 1415120104
            364831626 -1744958005 285409322</internalNodes>
          <leafValues>
            -2.2329223155975342e-001 1.4399874210357666e-001</leafValues></_>
        <_>
          <internalNodes>
            0 -1 85 -85557387 530460436 -369205640 -260950282 2073640788
            2065858367 2136291432 1618367553</internalNodes>
          <leafValues>
            -2.9354238510131836e-001 1.0938671231269836e-001</leafValues></_>
        <_>
          <internalNodes>
            0 -1 97 -217987706 1418493590 1952483654 892452499
            1598495014 1087165766 1826058186 4711751</internalNodes>
          <leafValues>
            -2.7502480149269104e-001 1.1831258982419968e-001</leafValues></_>
        <_>
          <internalNodes>
            0 -1 380 1878929301 -608297667 -269615297 1601337329
            -679854801 -1912706849 -294199299 -1080097731</internalNodes>
          <leafValues>
            -1.6212289035320282e-001 1.9508196413516998e-001</leafValues></_>
        <_>
          <internalNodes>
            0 -1 0 -359952222 -1962496256 -1829914890 -141249934
            1256863708 -1981816936 -454625551 -1058278318</internalNodes>
          <leafValues>
            -1.6524320840835571e-001 1.9627721607685089e-001</leafValues></_>
        <_>
          <internalNodes>
            0 -1 445 -1909965804 -1359201155 -1091049222 -1225392016
            194532572 1073536041 950998408 135269752</internalNodes>
          <leafValues>
            -4.7486585378646851e-001 6.5442159771919250e-002</leafValues></_>
        <_>
          <internalNodes>
            0 -1 509 -97282951 -13164239 888012541 -1648886763 -56967012
            -1644691976 -19182177 -659030309</internalNodes>
          <leafValues>
            -1.1263967305421829e-001 2.8154015541076660e-001</leafValues></_>
        <_>
          <internalNodes>
            0 -1 34 1479469602 -1813995698 -137743078 427590144 6105784
            2121271168 1642665714 1662248003</internalNodes>
          <leafValues>
            -2.4831385910511017e-001 1.2584327161312103e-001</leafValues></_>
        <_>
          <internalNodes>
            0 -1 505 -725153280 908330288 -455972259 1026618416
            216318132 1047998693 -1326659874 1748296944</internalNodes>
          <leafValues>
            -2.7430203557014465e-001 1.1124731600284576e-001</leafValues></_>
        <_>
          <internalNodes>
            0 -1 78 -589380594 -400908380 2017722714 -1108889122
            1533314780 1041313196 -236814872 1338592002</internalNodes>
          <leafValues>
            -2.1433857083320618e-001 1.4056757092475891e-001</leafValues></_>
        <_>
          <internalNodes>
            0 -1 235 114820212 1001785860 -238624801 149975200 775749628
            669964185 562829924 2080</internalNodes>
          <leafValues>
            -6.9602370262145996e-001 4.2312398552894592e-002</leafValues></_>
        <_>
          <internalNodes>
            0 -1 465 -285219296 1751424440 2021412499 480933044
            -557618520 953199716 1886133568 3075299</internalNodes>
          <leafValues>
            -2.8765341639518738e-001 9.9133320152759552e-002</leafValues></_>
        <_>
          <internalNodes>
            0 -1 371 -958089948 -1095879192 -1150691653 -1098995212
            936186525 2139064694 -1076093474 -1361040592</internalNodes>
          <leafValues>
            -2.3651698231697083e-001 1.2933172285556793e-001</leafValues></_>
        <_>
          <internalNodes>
            0 -1 148 1581753856 -1508641238 1315445425 -1237348893
            -111404116 659389443 699676363 336434059</internalNodes>
          <leafValues>
            -2.5064280629158020e-001 1.2005365639925003e-001</leafValues></_>
        <_>
          <internalNodes>
            0 -1 159 1615329858 -1841117660 -1515517440 -1142626699
            1346697935 -1531158850 -1124745542 1340434562</internalNodes>
          <leafValues>
            -1.9629457592964172e-001 1.5337385237216949e-001</leafValues></_>
        <_>
          <internalNodes>
            0 -1 441 -1565246720 440298013 -121938061 536885088
            1494764621 -117002510 -979576635 673186848</internalNodes>
          <leafValues>
            -4.8349902033805847e-001 5.8957569301128387e-002</leafValues></_>
        <_>
          <internalNodes>
            0 -1 58 -353187802 443421758 1203943482 870375676 -914995744
            -1087080544 -1217356364 2012473123</internalNodes>
          <leafValues>
            -1.9752210378646851e-001 1.5105974674224854e-001</leafValues></_>
        <_>
          <internalNodes>
            0 -1 472 -422587344 572540992 497021556 1911481948 -73459627
            170650915 -1095034016 1210839651</internalNodes>
          <leafValues>
            -2.2440721094608307e-001 1.2985488772392273e-001</leafValues></_>
        <_>
          <internalNodes>
            0 -1 489 -29387134 -1683293670 938113778 864035793
            2101624456 1022701556 528142248 -77863225</internalNodes>
          <leafValues>
            -1.3285548985004425e-001 2.1657253801822662e-001</leafValues></_>
        <_>
          <internalNodes>
            0 -1 501 -926274544 1610391125 -86475521 875625492
            1020416772 -1116916751 654118044 673759250</internalNodes>
          <leafValues>
            -3.1239518523216248e-001 9.6260346472263336e-002</leafValues></_>
        <_>
          <internalNodes>
            0 -1 381 654109741 -1089579747 713005935 1974648438
            -877365499 -327280054 494597110 -1146588111</internalNodes>
          <leafValues>
            -2.2404445707798004e-001 1.3545022904872894e-001</leafValues></_>
        <_>
          <internalNodes>
            0 -1 91 -1641108832 -303370072 -8784799 -70651792 1367979518
            -1897988843 971392184 -1634810878</internalNodes>
          <leafValues>
            -1.7733313143253326e-001 1.7183466255664825e-001</leafValues></_>
        <_>
          <internalNodes>
            0 -1 27 -1741517354 -1341208826 -112095936 901812032
            1349780513 1692432294 -1584563518 1810327362</internalNodes>
          <leafValues>
            -2.5381100177764893e-001 1.1892788857221603e-001</leafValues></_>
        <_>
          <internalNodes>
            0 -1 212 -1981146788 1069357943 937369208 -1628029264
            -891550338 -1107682444 -917155336 245524912</internalNodes>
          <leafValues>
            -3.1068944931030273e-001 9.6312828361988068e-002</leafValues></_>
        <_>
          <internalNodes>
            0 -1 174 2121248544 -2141992665 1796809395 355587826
            1392267621 -1206891078 -222045189 144690562</internalNodes>
          <leafValues>
            -1.8606008589267731e-001 1.6123361885547638e-001</leafValues></_>
        <_>
          <internalNodes>
            0 -1 458 -287575788 341337590 -1614498960 870107191
            876626562 1076118960 2056285708 538963403</internalNodes>
          <leafValues>
            -2.3249290883541107e-001 1.2792782485485077e-001</leafValues></_>
        <_>
          <internalNodes>
            0 -1 141 715130368 -1691153295 -1245244939 -2055597820
            204520444 -1140477955 1670160122 83895312</internalNodes>
          <leafValues>
            -4.3389347195625305e-001 6.7245319485664368e-002</leafValues></_></weakClassifiers></_>
    <!-- stage 10 -->
    <_>
      <maxWeakCount>36</maxWeakCount>
      <stageThreshold>-1.4906661510467529e+000</stageThreshold>
      <weakClassifiers>
        <_>
          <internalNodes>
            0 -1 139 275853504 -76302221 927996383 498151601 -2132432662
            -1146587988 954939391 1005527978</internalNodes>
          <leafValues>
            -6.8138194084167480e-001 -3.5480791330337524e-001</leafValues></_>
        <_>
          <internalNodes>
            0 -1 111 609157248 491568555 853289903 1070317537 182271892
            416322460 -1444595029 1071448846</internalNodes>
          <leafValues>
            -3.2702970504760742e-001 1.0664367675781250e-001</leafValues></_>
        <_>
          <internalNodes>
            0 -1 134 -1529698526 -193282609 790032848 535535451
            -1940878403 -1459982347 -856576533 204145930</internalNodes>
          <leafValues>
            -2.2179397940635681e-001 1.7466270923614502e-001</leafValues></_>
        <_>
          <internalNodes>
            0 -1 295 214699124 796670905 -329466115 -1376736324
            527185828 -622859 -1430333484 -1460141440</internalNodes>
          <leafValues>
            -3.4917953610420227e-001 1.0544720292091370e-001</leafValues></_>
        <_>
          <internalNodes>
            0 -1 368 -601192256 958543108 -275804339 1032577539
            -723000604 -1177044827 -1473836370 551812611</internalNodes>
          <leafValues>
            -1.8725578486919403e-001 2.0215082168579102e-001</leafValues></_>
        <_>
          <internalNodes>
            0 -1 86 -1209323694 992095538 -1566958365 -1833387074
            775098284 2138068783 2008505080 1661027842</internalNodes>
          <leafValues>
            -2.6458573341369629e-001 1.1414634436368942e-001</leafValues></_>
        <_>
          <internalNodes>
            0 -1 521 -1997087568 684993972 -1814065156 -1378611984
            745019309 215833493 1038026748 16479486</internalNodes>
          <leafValues>
            -3.0135947465896606e-001 1.0442669689655304e-001</leafValues></_>
        <_>
          <internalNodes>
            0 -1 9 -13456590 991103714 -503417485 1071332128 70288271
            -1814965890 98896347 1146163907</internalNodes>
          <leafValues>
            -2.1959808468818665e-001 1.4029748737812042e-001</leafValues></_>
        <_>
          <internalNodes>
            0 -1 103 1912649714 -731595978 -1360057410 -173297870
            -36456987 614815683 -287024641 -8540253</internalNodes>
          <leafValues>
            -1.3904362916946411e-001 2.2320717573165894e-001</leafValues></_>
        <_>
          <internalNodes>
            0 -1 179 -474310640 1064318962 -811647152 1071521560
            -1049690275 1540565810 -37353699 -345738488</internalNodes>
          <leafValues>
            -2.0462523400783539e-001 1.4629492163658142e-001</leafValues></_>
        <_>
          <internalNodes>
            0 -1 42 -856776834 -40699048 1894275867 530904944 942169480
            -1118148281 -615504551 1513307955</internalNodes>
          <leafValues>
            -1.8682433664798737e-001 1.5739303827285767e-001</leafValues></_>
        <_>
          <internalNodes>
            0 -1 467 -1601037196 2130593309 -565216835 904966804
            -1619253588 -1073755683 -1104011276 674759952</internalNodes>
          <leafValues>
            -4.4766160845756531e-001 6.8937227129936218e-002</leafValues></_>
        <_>
          <internalNodes>
            0 -1 195 1447347748 -1128472649 -1091739335 891102531
            -1062150874 -1430726188 -1279080149 325389854</internalNodes>
          <leafValues>
            -2.3372891545295715e-001 1.2002967298030853e-001</leafValues></_>
        <_>
          <internalNodes>
            0 -1 323 87831836 720774261 2111512498 779229040 804666641
            1899970135 672019888 544222320</internalNodes>
          <leafValues>
            -5.6526654958724976e-001 4.9916971474885941e-002</leafValues></_>
        <_>
          <internalNodes>
            0 -1 478 -222654144 892086792 -1258419982 -1147262676
            2142971212 -609994857 -1556422708 -313440638</internalNodes>
          <leafValues>
            -1.8219977617263794e-001 1.5548945963382721e-001</leafValues></_>
        <_>
          <internalNodes>
            0 -1 337 168316220 773334532 1254801136 715959600
            -1641198251 1045056377 -1342620608 716713360</internalNodes>
          <leafValues>
            -4.3130654096603394e-001 6.1708774417638779e-002</leafValues></_>
        <_>
          <internalNodes>
            0 -1 142 1160268192 -1141145056 -1141141025 -1780934144
            376626876 -1210069807 -1043978980 1491165523</internalNodes>
          <leafValues>
            -2.2202016413211823e-001 1.2292098999023438e-001</leafValues></_>
        <_>
          <internalNodes>
            0 -1 22 -96028766 -1779914045 798944122 -1713181502
            1078417057 634721259 2079785120 1977317106</internalNodes>
          <leafValues>
            -2.1814686059951782e-001 1.2235540896654129e-001</leafValues></_>
        <_>
          <internalNodes>
            0 -1 74 -1032139872 -1354322409 -310723539 -285169084
            1452557636 -31437461 -240727412 1178616855</internalNodes>
          <leafValues>
            -2.6273423433303833e-001 1.0393887758255005e-001</leafValues></_>
        <_>
          <internalNodes>
            0 -1 496 -292648796 507027708 -292603595 1573841168
            405455765 -1083591051 -791653212 -2064922252</internalNodes>
          <leafValues>
            -2.1395483613014221e-001 1.2861514091491699e-001</leafValues></_>
        <_>
          <internalNodes>
            0 -1 518 1759405628 553428396 -552337508 362690616
            -1499671053 752338429 -520845596 134311423</internalNodes>
          <leafValues>
            -2.4586184322834015e-001 1.1214622855186462e-001</leafValues></_>
        <_>
          <internalNodes>
            0 -1 234 -999547620 -1103342439 267218301 -1094934150
            -1315033687 -1104699537 1813793392 -1498926567</internalNodes>
          <leafValues>
            -2.4028325080871582e-001 1.1345712840557098e-001</leafValues></_>
        <_>
          <internalNodes>
            0 -1 505 -741971453 1530715674 -1393673249 2037441586
            2087275646 1710241524 -1309780770 -255142694</internalNodes>
          <leafValues>
            -1.5917581319808960e-001 1.7416889965534210e-001</leafValues></_>
        <_>
          <internalNodes>
            0 -1 90 1626517858 -859642778 1975622774 -35178526
            1090532928 -136985546 296705199 1709527299</internalNodes>
          <leafValues>
            -2.4357298016548157e-001 1.1261218041181564e-001</leafValues></_>
        <_>
          <internalNodes>
            0 -1 35 -632103354 -1637341505 1028677152 -1892243742
            -797118031 280256959 1979092156 -190765729</internalNodes>
          <leafValues>
            -1.8139371275901794e-001 1.5417280793190002e-001</leafValues></_>
        <_>
          <internalNodes>
            0 -1 121 1078536352 -190552469 883833006 -309332381
            -740179513 -1801916956 -56803577 965423691</internalNodes>
          <leafValues>
            -2.0157873630523682e-001 1.4140799641609192e-001</leafValues></_>
        <_>
          <internalNodes>
            0 -1 286 1899294340 -1260226324 740308989 617131452
            1727047029 -755189364 -1344951059 1728122502</internalNodes>
          <leafValues>
            -2.3946025967597961e-001 1.2087496370077133e-001</leafValues></_>
        <_>
          <internalNodes>
            0 -1 173 211483392 345822844 1907877883 -1787707489
            -357298500 1757736925 -1059142972 -1947926519</internalNodes>
          <leafValues>
            -1.8817892670631409e-001 1.5256993472576141e-001</leafValues></_>
        <_>
          <internalNodes>
            0 -1 390 1012378284 1532782191 1623633112 -1719129402
            83657148 1571049791 -1524795713 740715043</internalNodes>
          <leafValues>
            -2.1505951881408691e-001 1.3082614541053772e-001</leafValues></_>
        <_>
          <internalNodes>
            0 -1 1 -2086491120 -1148469264 1840213889 1013916480
            -423634193 -147919487 30482937 1118905344</internalNodes>
          <leafValues>
            -2.5652962923049927e-001 1.0840968042612076e-001</leafValues></_>
        <_>
          <internalNodes>
            0 -1 228 1339861922 -148598576 1452401908 -1955755457
            1763223172 -541604882 1064429819 172333058</internalNodes>
          <leafValues>
            -2.1073029935359955e-001 1.3544303178787231e-001</leafValues></_>
        <_>
          <internalNodes>
            0 -1 398 -985750560 45389349 259057532 -1247367412
            1754020069 -1364038151 144709176 -1477495782</internalNodes>
          <leafValues>
            -1.9311843812465668e-001 1.5118949115276337e-001</leafValues></_>
        <_>
          <internalNodes>
            0 -1 372 649205564 -820469771 -1080061738 -1634680878
            1675563756 1605156837 935267248 -1163358880</internalNodes>
          <leafValues>
            -2.4658353626728058e-001 1.1412117630243301e-001</leafValues></_>
        <_>
          <internalNodes>
            0 -1 448 1344780290 1950646241 2107172602 1039557290
            -1041349496 -1403421421 1614691320 1142412618</internalNodes>
          <leafValues>
            -2.1127749979496002e-001 1.3342666625976563e-001</leafValues></_>
        <_>
          <internalNodes>
            0 -1 427 541599748 778571361 -889982996 246653125 280262629
            1595076367 1607753724 32</internalNodes>
          <leafValues>
            -5.7055747509002686e-001 4.9174688756465912e-002</leafValues></_>
        <_>
          <internalNodes>
            0 -1 499 -1376849415 -1280557868 -1503974663 -1336097132
            463385450 -1610651673 -1613927939 -1681268716</internalNodes>
          <leafValues>
            -1.6723278164863586e-001 1.6869187355041504e-001</leafValues></_></weakClassifiers></_>
    <!-- stage 11 -->
    <_>
      <maxWeakCount>46</maxWeakCount>
      <stageThreshold>-1.5161542892456055e+000</stageThreshold>
      <weakClassifiers>
        <_>
          <internalNodes>
            0 -1 211 -98523024 -176843589 905747227 2142451123
            -949543685 -826966 -39964673 991955202</internalNodes>
          <leafValues>
            -6.6071236133575439e-001 -3.9982309937477112e-001</leafValues></_>
        <_>
          <internalNodes>
            0 -1 249 1912864980 -1733019770 -875591689 -38142197
            -1292763203 -51931693 -453237074 570958338</internalNodes>
          <leafValues>
            -3.1393894553184509e-001 5.3980503231287003e-002</leafValues></_>
        <_>
          <internalNodes>
            0 -1 64 -18874593 -13652425 -35868801 -412057770 2097638385
            -139428365 -1409093 1953725555</internalNodes>
          <leafValues>
            -1.5227900445461273e-001 1.8891637027263641e-001</leafValues></_>
        <_>
          <internalNodes>
            0 -1 275 1857564664 962215781 -1083629587 1046097645
            -1078183787 784104149 -473026843 1072968752</internalNodes>
          <leafValues>
            -3.0020296573638916e-001 1.3268791139125824e-001</leafValues></_>
        <_>
          <internalNodes>
            0 -1 470 -1000341651 1343549001 -723854019 1888286060
            -546387459 -1131843627 -318769044 -1876361313</internalNodes>
          <leafValues>
            -1.8080782890319824e-001 1.4463143050670624e-001</leafValues></_>
        <_>
          <internalNodes>
            0 -1 424 -1032784003 -75744340 -67709441 869596269
            2140983253 -1073762819 -2099479820 -1373099400</internalNodes>
          <leafValues>
            -2.0920778810977936e-001 1.2265415489673615e-001</leafValues></_>
        <_>
          <internalNodes>
            0 -1 26 -58541166 464562127 -1200511208 756130546 1681921249
            866199153 1861306122 1972463189</internalNodes>
          <leafValues>
            -2.4365428090095520e-001 1.0557700693607330e-001</leafValues></_>
        <_>
          <internalNodes>
            0 -1 14 -610735400 80903046 -1578831694 -210498620
            2026691032 -667124883 -199363414 42996882</internalNodes>
          <leafValues>
            -3.0843347311019897e-001 7.8003533184528351e-002</leafValues></_>
        <_>
          <internalNodes>
            0 -1 512 2066741201 -600544148 -4 1061135604 -558856449
            -1403287233 -2000036353 150993135</internalNodes>
          <leafValues>
            -1.4241129159927368e-001 1.8021947145462036e-001</leafValues></_>
        <_>
          <internalNodes>
            0 -1 276 -1892537008 821449009 -369673743 -1517545480
            628381173 968122109 -36274187 143657808</internalNodes>
          <leafValues>
            -3.4382796287536621e-001 7.2957456111907959e-002</leafValues></_>
        <_>
          <internalNodes>
            0 -1 280 570687508 347942079 1618308317 -1661195419
            1019493972 -1373768713 -335661244 136314960</internalNodes>
          <leafValues>
            -5.3849911689758301e-001 4.5207340270280838e-002</leafValues></_>
        <_>
          <internalNodes>
            0 -1 394 -587764188 974192404 -1107278218 -1388253582
            335688757 2118179511 -1438622418 1611724430</internalNodes>
          <leafValues>
            -2.5812473893165588e-001 9.0855188667774200e-002</leafValues></_>
        <_>
          <internalNodes>
            0 -1 92 -823150849 -1892774934 -270000210 -1142446590
            478170545 -1077166173 -831606311 1725384450</internalNodes>
          <leafValues>
            -1.5825016796588898e-001 1.5066738426685333e-001</leafValues></_>
        <_>
          <internalNodes>
            0 -1 16 1874504634 635777007 -350436741 -1413715277
            1189562564 -493687774 -71595726 -540848756</internalNodes>
          <leafValues>
            -1.6851803660392761e-001 1.4323249459266663e-001</leafValues></_>
        <_>
          <internalNodes>
            0 -1 499 -1494342283 -1167297044 667788020 628884118
            715794257 1006315467 134029780 12583536</internalNodes>
          <leafValues>
            -3.3368170261383057e-001 7.2106279432773590e-002</leafValues></_>
        <_>
          <internalNodes>
            0 -1 55 -688393194 -82526233 -1091322199 1605370495
            1290834096 -789557449 -59739448 136593543</internalNodes>
          <leafValues>
            -1.8295791745185852e-001 1.2637987732887268e-001</leafValues></_>
        <_>
          <internalNodes>
            0 -1 384 -1134643680 1208914988 -302823868 1969466942
            754078197 2146495577 -1201784755 940647477</internalNodes>
          <leafValues>
            -2.4282093346118927e-001 9.5272503793239594e-002</leafValues></_>
        <_>
          <internalNodes>
            0 -1 85 -119640227 257849175 -943313292 -1606407274
            433544564 392579967 -1225442047 1701929488</internalNodes>
          <leafValues>
            -2.8454074263572693e-001 8.1743575632572174e-002</leafValues></_>
        <_>
          <internalNodes>
            0 -1 200 1913400996 1744866320 1771584160 952368186
            1995969796 1402234877 -238021876 269295760</internalNodes>
          <leafValues>
            -3.4086653590202332e-001 6.8606898188591003e-002</leafValues></_>
        <_>
          <internalNodes>
            0 -1 517 -420231134 417461916 1972870970 1755506408
            1826564271 739610555 -486540272 -525351710</internalNodes>
          <leafValues>
            -1.6466787457466125e-001 1.4107973873615265e-001</leafValues></_>
        <_>
          <internalNodes>
            0 -1 216 547357984 -1760776352 -339793322 897325221
            412764296 -1113271298 731725445 16</internalNodes>
          <leafValues>
            -4.9036175012588501e-001 4.6579420566558838e-002</leafValues></_>
        <_>
          <internalNodes>
            0 -1 329 -730878552 776752873 1788206472 -1197422390
            442972653 1953498805 373038606 2220887</internalNodes>
          <leafValues>
            -2.5500074028968811e-001 9.0115755796432495e-002</leafValues></_>
        <_>
          <internalNodes>
            0 -1 44 -470892910 -826766030 629015642 -1141838084
            216313332 -1088240507 -282996786 1841546339</internalNodes>
          <leafValues>
            -1.7802080512046814e-001 1.3662140071392059e-001</leafValues></_>
        <_>
          <internalNodes>
            0 -1 431 -2003058624 286468705 -270866699 402055999
            2027553934 2070400996 1791344330 -233440217</internalNodes>
          <leafValues>
            -1.5435908734798431e-001 1.5516218543052673e-001</leafValues></_>
        <_>
          <internalNodes>
            0 -1 215 1479719272 -622802908 760322421 1506638000
            578218201 2095108456 584916190 1891727042</internalNodes>
          <leafValues>
            -2.1503926813602448e-001 1.1156173795461655e-001</leafValues></_>
        <_>
          <internalNodes>
            0 -1 293 216802820 112987878 746561246 720522866 620635412
            685912836 888937776 135267360</internalNodes>
          <leafValues>
            -5.5235213041305542e-001 3.9858080446720123e-002</leafValues></_>
        <_>
          <internalNodes>
            0 -1 95 -999411564 1366876993 -837239457 524069472 1339030
            -1984380985 1991508427 1960781140</internalNodes>
          <leafValues>
            -2.2330410778522491e-001 1.0211654752492905e-001</leafValues></_>
        <_>
          <internalNodes>
            0 -1 471 -1506671244 -1575826056 1870590975 -1741148455
            783691672 2061590385 186416816 2097168</internalNodes>
          <leafValues>
            -4.2296883463859558e-001 5.5396039038896561e-002</leafValues></_>
        <_>
          <internalNodes>
            0 -1 226 1121321748 -151997633 -1797550098 669263524
            861426676 523255189 -1378996560 95683200</internalNodes>
          <leafValues>
            -2.8118708729743958e-001 8.2746244966983795e-002</leafValues></_>
        <_>
          <internalNodes>
            0 -1 345 775735140 173731799 -1484830098 -1198066073
            1476240357 1603710725 1861047529 -1931271133</internalNodes>
          <leafValues>
            -1.6843368113040924e-001 1.3930338621139526e-001</leafValues></_>
        <_>
          <internalNodes>
            0 -1 184 1554224993 729540659 -1244161 -814727199 956059634
            -1251090467 -318984209 -364910558</internalNodes>
          <leafValues>
            -1.1811578273773193e-001 2.1021787822246552e-001</leafValues></_>
        <_>
          <internalNodes>
            0 -1 29 -1574772064 -1707059676 -277609291 2079837114
            1324706772 335669943 870016406 -1331202221</internalNodes>
          <leafValues>
            -1.8964125216007233e-001 1.3174334168434143e-001</leafValues></_>
        <_>
          <internalNodes>
            0 -1 81 -1125465560 341180909 308042239 1166159862
            1874124524 -1127326875 1794631592 1396720778</internalNodes>
          <leafValues>
            -2.1121737360954285e-001 1.1851356923580170e-001</leafValues></_>
        <_>
          <internalNodes>
            0 -1 158 75286868 -2039152986 -1437575285 -1601138834
            1178886885 -1191940489 -18511624 75699318</internalNodes>
          <leafValues>
            -2.4804054200649261e-001 9.4055257737636566e-002</leafValues></_>
        <_>
          <internalNodes>
            0 -1 300 -407194016 -286607571 -1217763570 -227349634
            -564761600 -2068349329 15618292 -1844574816</internalNodes>
          <leafValues>
            -2.2416262328624725e-001 1.0675553232431412e-001</leafValues></_>
        <_>
          <internalNodes>
            0 -1 419 -1213742345 -1295997003 771137530 2146811812
            -455198793 -1108575051 468803216 -307495954</internalNodes>
          <leafValues>
            -1.0579886287450790e-001 2.2018034756183624e-001</leafValues></_>
        <_>
          <internalNodes>
            0 -1 190 1887680959 -121913634 -1698828483 -1112032415
            -617463833 -1293647918 -168420641 -1159339870</internalNodes>
          <leafValues>
            -1.0105163604021072e-001 2.3339653015136719e-001</leafValues></_>
        <_>
          <internalNodes>
            0 -1 124 169553742 974663752 483415703 1944411041 -702174313
            1868501502 943805820 48047916</internalNodes>
          <leafValues>
            -2.2178503870964050e-001 1.0843982547521591e-001</leafValues></_>
        <_>
          <internalNodes>
            0 -1 395 639649120 331279157 -1447123716 977803192
            -134732524 465984045 -1265559072 -1160773564</internalNodes>
          <leafValues>
            -2.8299960494041443e-001 8.4409341216087341e-002</leafValues></_>
        <_>
          <internalNodes>
            0 -1 397 2138269274 -1053759984 785017096 79187638 778414623
            2028230856 1865160335 1091829107</internalNodes>
          <leafValues>
            -1.7777521908283234e-001 1.3786417245864868e-001</leafValues></_>
        <_>
          <internalNodes>
            0 -1 485 -1397088936 -1745689452 704523518 -1526780828
            792547217 1702620523 -1699373612 406343968</internalNodes>
          <leafValues>
            -3.1155988574028015e-001 7.7748291194438934e-002</leafValues></_>
        <_>
          <internalNodes>
            0 -1 75 -648106942 -1231104482 647257657 1831556175
            1685352768 -839625641 1332735988 1340424466</internalNodes>
          <leafValues>
            -2.0019416511058807e-001 1.1995694786310196e-001</leafValues></_>
        <_>
          <internalNodes>
            0 -1 417 -65875242 -1791870841 787163743 -1813401602
            -562606931 -539716636 920398472 -498874398</internalNodes>
          <leafValues>
            -1.3131150603294373e-001 1.8281897902488708e-001</leafValues></_>
        <_>
          <internalNodes>
            0 -1 224 206873120 100698630 1659677362 -638465097 -5120980
            1474848096 973383330 588561158</internalNodes>
          <leafValues>
            -2.6447752118110657e-001 8.9746750891208649e-002</leafValues></_>
        <_>
          <internalNodes>
            0 -1 178 255725380 869263839 431622456 888808630 -295746768
            -555766306 1839753180 153634600</internalNodes>
          <leafValues>
            -3.2347777485847473e-001 7.3530532419681549e-002</leafValues></_>
        <_>
          <internalNodes>
            0 -1 500 -125157310 -786675833 -1103139222 815052684
            -121219572 -1350025749 -95329766 -1066370494</internalNodes>
          <leafValues>
            -2.0419511198997498e-001 1.1770574003458023e-001</leafValues></_></weakClassifiers></_>
    <!-- stage 12 -->
    <_>
      <maxWeakCount>46</maxWeakCount>
      <stageThreshold>-1.4940936565399170e+000</stageThreshold>
      <weakClassifiers>
        <_>
          <internalNodes>
            0 -1 519 -268441745 -1059129457 -125830406 -59312654
            -473956648 -386404874 -185601804 -788529153</internalNodes>
          <leafValues>
            -6.2792563438415527e-001 -3.2472005486488342e-001</leafValues></_>
        <_>
          <internalNodes>
            0 -1 41 -219156673 -1029643454 -1443175745 -862812
            -806035485 -22951977 -160273132 -134744093</internalNodes>
          <leafValues>
            -1.9445773959159851e-001 2.0333737134933472e-001</leafValues></_>
        <_>
          <internalNodes>
            0 -1 459 -67109931 1548803385 -186782748 -119342090
            2044186268 -1313552412 -299276503 -467271753</internalNodes>
          <leafValues>
            -1.5775229036808014e-001 1.8470646440982819e-001</leafValues></_>
        <_>
          <internalNodes>
            0 -1 79 -362545369 -174660617 -135348398 -497879434
            2046263041 2085083158 -218792656 1164198960</internalNodes>
          <leafValues>
            -2.7429348230361938e-001 1.0435362160205841e-001</leafValues></_>
        <_>
          <internalNodes>
            0 -1 348 34630956 347603705 939249304 1052688111 357857269
            804585205 922629628 741616944</internalNodes>
          <leafValues>
            -3.7794303894042969e-001 1.0120415687561035e-001</leafValues></_>
        <_>
          <internalNodes>
            0 -1 521 -1375731721 217246141 1071550059 -1898459943
            921630399 -1929420995 -1375758987 1157363455</internalNodes>
          <leafValues>
            -1.9877991080284119e-001 1.3531732559204102e-001</leafValues></_>
        <_>
          <internalNodes>
            0 -1 94 -926492766 -323573110 1029355316 -1119746016
            1081177396 -746228259 -308961418 1148679189</internalNodes>
          <leafValues>
            -2.4226218461990356e-001 1.2685470283031464e-001</leafValues></_>
        <_>
          <internalNodes>
            0 -1 236 -328184556 -687968913 1458188598 -1532591108
            -1300345356 637062045 -705744824 183242272</internalNodes>
          <leafValues>
            -3.1650248169898987e-001 7.7370904386043549e-002</leafValues></_>
        <_>
          <internalNodes>
            0 -1 28 1159375750 282373284 -1359083858 -2053067166
            1972778240 1355036318 -135853752 1154817862</internalNodes>
          <leafValues>
            -3.2837530970573425e-001 7.5613029301166534e-002</leafValues></_>
        <_>
          <internalNodes>
            0 -1 333 -296508416 -58397584 808111852 -231887166
            1740539668 1689200625 -1440801240 1345449009</internalNodes>
          <leafValues>
            -2.5862845778465271e-001 9.3747198581695557e-002</leafValues></_>
