<?xml version="1.0"?>
<opencv_storage>
<cascade>
  <stageType>BOOST</stageType>
  <featureType>LBP</featureType>
  <height>12</height>
  <width>24</width>
  <stageParams>
    <boostType>GAB</boostType>
    <minHitRate>9.9500000476837158e-001</minHitRate>
    <maxFalseAlarm>5.0000000000000000e-001</maxFalseAlarm>
    <weightTrimRate>9.4999998807907104e-001</weightTrimRate>
    <maxDepth>1</maxDepth>
    <maxWeakCount>100</maxWeakCount></stageParams>
  <featureParams>
    <maxCatCount>256</maxCatCount>
    <featSize>1</featSize></featureParams>
  <stageNum>13</stageNum>
  <stages>
    <!-- stage 0 -->
    <_>
      <maxWeakCount>6</maxWeakCount>
      <stageThreshold>-1.9361490011215210e+000</stageThreshold>
      <weakClassifiers>
        <_>
          <internalNodes>
            0 -1 21 1576493055 -33281 1398742015 -2122241 1036483583
            -34305 1073708031 -50177</internalNodes>
          <leafValues>
            -8.0143016576766968e-001 4.3644332885742188e-001</leafValues></_>
        <_>
          <internalNodes>
            0 -1 11 -327681 -788513 -137308161 -15698089 2141208511
            -71618757 -4972545 1933588227</internalNodes>
          <leafValues>
            -7.8258228302001953e-001 3.5001525282859802e-001</leafValues></_>
        <_>
          <internalNodes>
            0 -1 74 -118165296 -102898543 -598084355 -707137795
            -188813094 -34684422 -860038657 -856957701</internalNodes>
          <leafValues>
            -5.7986170053482056e-001 4.3584051728248596e-001</leafValues></_>
        <_>
          <internalNodes>
            0 -1 68 942964597 368399227 1004214771 368548863 -1161823239
            -1610621509 448380415 951713498</internalNodes>
          <leafValues>
            -5.6002414226531982e-001 4.3191447854042053e-001</leafValues></_>
        <_>
          <internalNodes>
            0 -1 13 -75498053 -2138250 394166205 -9224430 592789299
            2142879600 1912045559 1870099319</internalNodes>
          <leafValues>
            -5.2358394861221313e-001 4.3565666675567627e-001</leafValues></_>
        <_>
          <internalNodes>
            0 -1 3 -3342368 -36677130 -745350149 -135171214 2046361342
            -73230320 -16631364 928190930</internalNodes>
          <leafValues>
            -6.5087616443634033e-001 3.5209268331527710e-001</leafValues></_></weakClassifiers></_>
    <!-- stage 1 -->
    <_>
      <maxWeakCount>8</maxWeakCount>
      <stageThreshold>-1.9479887485504150e+000</stageThreshold>
      <weakClassifiers>
        <_>
          <internalNodes>
            0 -1 20 1979145727 -2099745 -52737 -62593 1878687743 -43633
            2142978047 -32769</internalNodes>
          <leafValues>
            -7.9567378759384155e-001 1.5441539883613586e-001</leafValues></_>
        <_>
          <internalNodes>
            0 -1 34 -772276225 1946140543 354254846 1610587583 -3411969
            2147458794 -1090549506 448768186</internalNodes>
          <leafValues>
            -6.6564130783081055e-001 3.1204316020011902e-001</leafValues></_>
        <_>
          <internalNodes>
            0 -1 6 -14485550 -13585360 -67406337 2098294832 -67988557
            -67600430 -402655233 1431523379</internalNodes>
          <leafValues>
            -6.1165380477905273e-001 3.1660267710685730e-001</leafValues></_>
        <_>
          <internalNodes>
            0 -1 99 -2143355905 922488028 -1 -1115869224 -1778452483
            -1610612755 -1912603172 -1644167681</internalNodes>
          <leafValues>
            -4.2912569642066956e-001 4.8914223909378052e-001</leafValues></_>
        <_>
          <internalNodes>
            0 -1 10 -774128641 -86795809 -1714373633 -146772525
            1734554425 -11371605 -741345537 1895833903</internalNodes>
          <leafValues>
            -5.3756541013717651e-001 3.8248750567436218e-001</leafValues></_>
        <_>
          <internalNodes>
            0 -1 91 -923156268 -50474539 -1870342948 -637969417
            -2136499819 -1951012693 16010399 15727359</internalNodes>
          <leafValues>
            -5.2677363157272339e-001 3.3124279975891113e-001</leafValues></_>
        <_>
          <internalNodes>
            0 -1 55 -1086578691 -67141633 1058741499 -1080418593
            -1418748161 -4350737 -275939331 -1073864194</internalNodes>
          <leafValues>
            -4.3912404775619507e-001 4.1507980227470398e-001</leafValues></_>
        <_>
          <internalNodes>
            0 -1 63 903608826 396331482 1900006333 -33566345 1806103804
            -1431573859 350604601 605941168</internalNodes>
          <leafValues>
            -6.0726541280746460e-001 2.7129602432250977e-001</leafValues></_></weakClassifiers></_>
    <!-- stage 2 -->
    <_>
      <maxWeakCount>7</maxWeakCount>
      <stageThreshold>-1.5418075323104858e+000</stageThreshold>
      <weakClassifiers>
        <_>
          <internalNodes>
            0 -1 77 1073217535 973068285 1040169471 1073740735 -67371009
            -12545 -1174421505 -1073741825</internalNodes>
          <leafValues>
            -7.7875459194183350e-001 9.0019568800926208e-002</leafValues></_>
        <_>
          <internalNodes>
            0 -1 17 -8423627 -8962261 2138011517 -13978817 -9493968
            931078125 2139034928 -8421513</internalNodes>
          <leafValues>
            -5.9478861093521118e-001 2.6958826184272766e-001</leafValues></_>
        <_>
          <internalNodes>
            0 -1 75 -1191727617 -1782637581 -235537027 -704905217
            -1523600401 -1145100311 -1786923944 12699121</internalNodes>
          <leafValues>
            -6.3877832889556885e-001 2.9284164309501648e-001</leafValues></_>
        <_>
          <internalNodes>
            0 -1 56 495992272 1065301933 1073395643 1040138142
            -1644517379 -3228673 -1073995778 1001917877</internalNodes>
          <leafValues>
            -7.6237219572067261e-001 2.3188863694667816e-001</leafValues></_>
        <_>
          <internalNodes>
            0 -1 12 -276561937 -144507582 -596550408 -13389790 89015843
            1332083927 1098477665 1417146487</internalNodes>
          <leafValues>
            -5.6190031766891479e-001 3.1923064589500427e-001</leafValues></_>
        <_>
          <internalNodes>
            0 -1 103 -1628508687 753707479 -1679818761 773621245
            -673644577 -557923077 -369363972 -1435544081</internalNodes>
          <leafValues>
            -4.5053994655609131e-001 3.8737022876739502e-001</leafValues></_>
        <_>
          <internalNodes>
            0 -1 41 -268441854 -143392985 -268435554 -203063425 12576678
            -428609753 1173853660 -617101397</internalNodes>
          <leafValues>
            -3.3809161186218262e-001 4.7991609573364258e-001</leafValues></_></weakClassifiers></_>
    <!-- stage 3 -->
    <_>
      <maxWeakCount>9</maxWeakCount>
      <stageThreshold>-1.6730736494064331e+000</stageThreshold>
      <weakClassifiers>
        <_>
          <internalNodes>
            0 -1 42 -6 -254510081 -574406694 -138989161 -745801993
            1892688631 -2149378 -1</internalNodes>
          <leafValues>
            -7.5052618980407715e-001 1.2514351308345795e-001</leafValues></_>
        <_>
          <internalNodes>
            0 -1 45 1565299421 -44257644 -2179073 -134147 -1560497218
            -1074218308 -1677919494 -1142388600</internalNodes>
          <leafValues>
            -5.4456663131713867e-001 3.8102331757545471e-001</leafValues></_>
        <_>
          <internalNodes>
            0 -1 72 -1141760108 1000019001 1893275577 2145343217
            -1146119430 -1483058945 1067398079 1073683902</internalNodes>
          <leafValues>
            -6.2530642747879028e-001 2.7822315692901611e-001</leafValues></_>
        <_>
          <internalNodes>
            0 -1 83 -19400022 -121203082 980466394 903191038 -1864829456
            -2143427948 -1334729731 -1262502457</internalNodes>
          <leafValues>
            -4.4462695717811584e-001 4.0989163517951965e-001</leafValues></_>
        <_>
          <internalNodes>
            0 -1 25 959449588 -201652290 -979954960 2139032062 920530167
            2023037318 1877293311 2134325167</internalNodes>
          <leafValues>
            -6.3509476184844971e-001 2.6943087577819824e-001</leafValues></_>
        <_>
          <internalNodes>
            0 -1 79 -50339624 762937539 -1071655951 1976685055
            -1194530564 -1111783191 -1870212964 14674907</internalNodes>
          <leafValues>
            -5.1868009567260742e-001 2.9765954613685608e-001</leafValues></_>
        <_>
          <internalNodes>
            0 -1 64 -545472563 -16835105 -619585859 -167905569 -7553034
            -646059028 -1296172578 -1632894472</internalNodes>
          <leafValues>
            -4.1924196481704712e-001 3.7469473481178284e-001</leafValues></_>
        <_>
          <internalNodes>
            0 -1 84 -292557268 -755782654 -829966404 -95170476
            -1058594393 164615 1435628052 -986775296</internalNodes>
          <leafValues>
            -4.4805485010147095e-001 3.4641453623771667e-001</leafValues></_>
        <_>
          <internalNodes>
            0 -1 43 -6291498 -738203212 -72379905 -201856134 -337939458
            -2191620 2146375918 1022501802</internalNodes>
          <leafValues>
            -5.9525102376937866e-001 2.6674243807792664e-001</leafValues></_></weakClassifiers></_>
    <!-- stage 4 -->
    <_>
      <maxWeakCount>6</maxWeakCount>
      <stageThreshold>-1.7566310167312622e+000</stageThreshold>
      <weakClassifiers>
        <_>
          <internalNodes>
            0 -1 41 -492918272 -766263260 293924894 -209733537
            -2143051616 -1879048064 278176671 -742424401</internalNodes>
          <leafValues>
            -8.2942944765090942e-001 1.7790855467319489e-001</leafValues></_>
        <_>
          <internalNodes>
            0 -1 27 -104463640 -205166386 1405157588 2009408156
            -1681097762 956957602 965558203 -69255525</internalNodes>
          <leafValues>
            -6.5788906812667847e-001 3.8768512010574341e-001</leafValues></_>
        <_>
          <internalNodes>
            0 -1 88 -890264058 -697090525 -809517060 1936928566
            -2131433856 7833380 1442621422 -1290600054</internalNodes>
          <leafValues>
            -4.9590551853179932e-001 5.0698709487915039e-001</leafValues></_>
        <_>
          <internalNodes>
            0 -1 59 -80200204 -27 2147483647 -34916356 -2230320
            -1361068041 -4276305 -1079507720</internalNodes>
          <leafValues>
            -4.6585133671760559e-001 4.8680144548416138e-001</leafValues></_>
        <_>
          <internalNodes>
            0 -1 44 -1853222472 -145818224 39144917 -2275116 -1316996356
            -1843002784 396405692 -1641408360</internalNodes>
          <leafValues>
            -5.3451943397521973e-001 3.9861825108528137e-001</leafValues></_>
        <_>
          <internalNodes>
            0 -1 1 -1460608304 -537913456 -25109035 -1611178028
            -1309609479 -1082815964 2113534909 -12487088</internalNodes>
          <leafValues>
            -6.9080787897109985e-001 2.9382604360580444e-001</leafValues></_></weakClassifiers></_>
    <!-- stage 5 -->
    <_>
      <maxWeakCount>8</maxWeakCount>
      <stageThreshold>-1.6013889312744141e+000</stageThreshold>
      <weakClassifiers>
        <_>
          <internalNodes>
            0 -1 47 -671089146 -109856511 -578619458 1902572154
            -660626523 -192741340 -71303173 -214446422</internalNodes>
          <leafValues>
            -7.8952234983444214e-001 -2.9424128588289022e-003</leafValues></_>
        <_>
          <internalNodes>
            0 -1 71 -1078716419 -545292803 -33595393 -1085697 -2360325
            -9446950 -1141063681 -1074053381</internalNodes>
          <leafValues>
            -5.4821354150772095e-001 3.4740269184112549e-001</leafValues></_>
        <_>
          <internalNodes>
            0 -1 42 -93144336 1355814991 -1079758928 -1256705662
            -796871792 544210962 1543504820 -503859234</internalNodes>
          <leafValues>
            -4.9886241555213928e-001 3.8691300153732300e-001</leafValues></_>
        <_>
          <internalNodes>
            0 -1 50 1172052889 -134417959 -1679966731 -538050578
            -1682654212 -4414564 -1082590209 -1365767992</internalNodes>
          <leafValues>
            -4.4450947642326355e-001 3.8135772943496704e-001</leafValues></_>
        <_>
          <internalNodes>
            0 -1 85 -83972916 -227134340 905714552 901496767 -260135451
            542430574 -2124988788 -236989078</internalNodes>
          <leafValues>
            -3.5153701901435852e-001 4.9815195798873901e-001</leafValues></_>
        <_>
          <internalNodes>
            0 -1 57 -1551204168 -607123304 21311865 -586350440 11317401
            2061239201 29425835 -1618017108</internalNodes>
          <leafValues>
            -4.2233911156654358e-001 4.0422785282135010e-001</leafValues></_>
        <_>
          <internalNodes>
            0 -1 18 -1086647055 -149351561 -661305993 -547386977
            792484720 1925402138 457188206 -320710</internalNodes>
          <leafValues>
            -4.3830960988998413e-001 3.7503701448440552e-001</leafValues></_>
        <_>
          <internalNodes>
            0 -1 60 828241917 284453887 990748595 1033878430 -79833859
            -1125538632 -1393219588 416854672</internalNodes>
          <leafValues>
            -5.3388917446136475e-001 3.0691048502922058e-001</leafValues></_></weakClassifiers></_>
    <!-- stage 6 -->
    <_>
      <maxWeakCount>10</maxWeakCount>
      <stageThreshold>-1.6196515560150146e+000</stageThreshold>
      <weakClassifiers>
        <_>
          <internalNodes>
            0 -1 32 -285233233 -202113266 -543719681 -135268940
            -942690577 -86013970 -946864129 -606109458</internalNodes>
          <leafValues>
            -7.1447741985321045e-001 1.3700565695762634e-001</leafValues></_>
        <_>
          <internalNodes>
            0 -1 22 522455289 -136610305 -142770721 -2375937 1073561599
            2146842623 -24657925 2142314495</internalNodes>
          <leafValues>
            -6.5653496980667114e-001 2.0930674672126770e-001</leafValues></_>
        <_>
          <internalNodes>
            0 -1 95 -589834795 1912602079 -251661449 1375731071
            -16908584 -119734818 -531836710 -121910277</internalNodes>
          <leafValues>
            -3.3089208602905273e-001 5.2128058671951294e-001</leafValues></_>
        <_>
          <internalNodes>
            0 -1 78 -51925624 -117588419 2147482908 -33047 -148755
            -1728118787 828978824 -206622712</internalNodes>
          <leafValues>
            -3.6355710029602051e-001 4.2329001426696777e-001</leafValues></_>
        <_>
          <internalNodes>
            0 -1 30 486280181 1072993816 -1082377737 1063063645
            686587900 -5186384 2122072063 256124032</internalNodes>
          <leafValues>
            -4.7106495499610901e-001 3.5363915562629700e-001</leafValues></_>
        <_>
          <internalNodes>
            0 -1 9 -134794317 -139338 -590482446 2138054962 2128361251
            -18110725 -75662850 1413968675</internalNodes>
          <leafValues>
            -5.5061310529708862e-001 2.9841443896293640e-001</leafValues></_>
        <_>
          <internalNodes>
            0 -1 77 1882570365 838718967 297642995 362748381 936901885
            922077945 1912383350 285109950</internalNodes>
          <leafValues>
            -5.3427571058273315e-001 2.6751399040222168e-001</leafValues></_>
        <_>
          <internalNodes>
            0 -1 39 -707797516 -2237025 -2230499 -536871615 -134267201
            -66052 -1349779781 -905215990</internalNodes>
          <leafValues>
            -3.1508031487464905e-001 4.6899068355560303e-001</leafValues></_>
        <_>
          <internalNodes>
            0 -1 92 -60859372 -730264251 -1392605071 -40394085
            -371853090 -296925037 -125895262 -791159049</internalNodes>
          <leafValues>
            -3.9228603243827820e-001 3.7514427304267883e-001</leafValues></_>
        <_>
          <internalNodes>
            0 -1 28 -1851611424 -6263340 2144970133 -1110591111
            -1859625025 -604449895 729374463 -1987966956</internalNodes>
          <leafValues>
            -4.6897742152214050e-001 3.0582514405250549e-001</leafValues></_></weakClassifiers></_>
    <!-- stage 7 -->
    <_>
      <maxWeakCount>9</maxWeakCount>
      <stageThreshold>-2.0959374904632568e+000</stageThreshold>
      <weakClassifiers>
        <_>
          <internalNodes>
            0 -1 53 -1064961 -9 -1179410953 -2113537 -37 -4120 -16385
            -1073828946</internalNodes>
          <leafValues>
            -7.5274479389190674e-001 -5.6756757199764252e-002</leafValues></_>
        <_>
          <internalNodes>
            0 -1 33 1173729279 1574666239 1974943743 -2097153 1590676479
            2013265887 -257 2145886890</internalNodes>
          <leafValues>
            -5.3710025548934937e-001 2.7899807691574097e-001</leafValues></_>
        <_>
          <internalNodes>
            0 -1 55 -1086841859 -67223585 -1075896329 1061101549
            -1275806209 -68209731 -1342914627 1069297140</internalNodes>
          <leafValues>
            -5.6226271390914917e-001 2.5887766480445862e-001</leafValues></_>
        <_>
          <internalNodes>
            0 -1 49 -68204 -757927961 805186538 -201935106 1744828404
            1882535924 360692410 -203167745</internalNodes>
          <leafValues>
            -3.2800152897834778e-001 4.5445016026496887e-001</leafValues></_>
        <_>
          <internalNodes>
            0 -1 61 590718935 683555641 -539650049 -1375900161
            -1239826433 1073199999 905016441 81100868</internalNodes>
          <leafValues>
            -6.1613941192626953e-001 2.7597963809967041e-001</leafValues></_>
        <_>
          <internalNodes>
            0 -1 88 -293663228 -755243485 -809521224 1467068343
            1089791939 -1065885916 -704839755 -214728150</internalNodes>
          <leafValues>
            -3.8059771060943604e-001 3.8742652535438538e-001</leafValues></_>
        <_>
          <internalNodes>
            0 -1 29 433856496 -1192218896 -1780404233 -539682827
            -219907076 -1175687208 -5754407 -876084988</internalNodes>
          <leafValues>
            -4.6467620134353638e-001 3.1490653753280640e-001</leafValues></_>
        <_>
          <internalNodes>
            0 -1 16 -19925117 -367922974 -718542064 -70077246 91298113
            2163745 1416722032 1400328455</internalNodes>
          <leafValues>
            -7.0286023616790771e-001 1.9945406913757324e-001</leafValues></_>
        <_>
          <internalNodes>
            0 -1 98 -1075905379 -1627471107 -1514679297 -1075989059
            -1981941267 769515437 -134217729 -1107561473</internalNodes>
          <leafValues>
            -3.6712843179702759e-001 4.1368910670280457e-001</leafValues></_></weakClassifiers></_>
    <!-- stage 8 -->
    <_>
      <maxWeakCount>10</maxWeakCount>
      <stageThreshold>-1.6490460634231567e+000</stageThreshold>
      <weakClassifiers>
        <_>
          <internalNodes>
            0 -1 89 -1052170 -792464569 -1209352230 -134242321
            -808077833 10756855 -1147168065 -1048577</internalNodes>
          <leafValues>
            -7.1651601791381836e-001 6.4454369246959686e-002</leafValues></_>
        <_>
          <internalNodes>
            0 -1 41 -67113052 -143403727 -1323601834 -172494081
            -1029970301 -802968923 1912570783 -138419537</internalNodes>
          <leafValues>
            -4.0468055009841919e-001 4.1010957956314087e-001</leafValues></_>
        <_>
          <internalNodes>
            0 -1 15 1931425791 -22561 -540983553 1673948155 1042626406
            -49177 -135299074 1936736059</internalNodes>
          <leafValues>
            -5.9784859418869019e-001 2.2780668735504150e-001</leafValues></_>
        <_>
          <internalNodes>
            0 -1 90 -1285114920 -219955492 865567676 972726228 435361215
            816260817 134025982 -1073766441</internalNodes>
          <leafValues>
            -4.1800493001937866e-001 3.3459383249282837e-001</leafValues></_>
        <_>
          <internalNodes>
            0 -1 70 -172482599 -50561027 -25 -101875721 -4325377 -131105
            -308346882 -1079241432</internalNodes>
          <leafValues>
            -3.5004359483718872e-001 3.9409586787223816e-001</leafValues></_>
        <_>
          <internalNodes>
            0 -1 32 -319837430 -96998136 -1618100481 1399192628
            -1905086494 -956846164 1149239038 -1022393206</internalNodes>
          <leafValues>
            -3.0664429068565369e-001 4.3963000178337097e-001</leafValues></_>
        <_>
          <internalNodes>
            0 -1 52 925167869 970776764 2103237623 -4411666 1912250335
            -215108 -269549642 -74971128</internalNodes>
          <leafValues>
            -4.2767149209976196e-001 3.3577719330787659e-001</leafValues></_>
        <_>
          <internalNodes>
            0 -1 101 -857042978 687139028 177406392 5147758 -1458819340
            14492123 -1694759506 -2001744757</internalNodes>
          <leafValues>
            -4.6794202923774719e-001 2.9283356666564941e-001</leafValues></_>
        <_>
          <internalNodes>
            0 -1 23 -84471200 308755269 1589909780 2039637842 -79331547
            811868741 -14930950 -143452374</internalNodes>
          <leafValues>
            -5.0632953643798828e-001 2.6991936564445496e-001</leafValues></_>
        <_>
          <internalNodes>
            0 -1 47 -1024024914 -243843552 -758385874 1343403018
            -102914395 2022842788 1375664057 1362530218</internalNodes>
          <leafValues>
            -4.8980072140693665e-001 2.6983675360679626e-001</leafValues></_></weakClassifiers></_>
    <!-- stage 9 -->
    <_>
      <maxWeakCount>10</maxWeakCount>
      <stageThreshold>-1.7603012323379517e+000</stageThreshold>
      <weakClassifiers>
        <_>
          <internalNodes>
            0 -1 8 -436011009 -1119262 -279977985 -5525006 -863305793
            -1069069 -1343490049 -1575005</internalNodes>
          <leafValues>
            -7.3443251848220825e-001 -6.8400770425796509e-002</leafValues></_>
        <_>
          <internalNodes>
            0 -1 24 -67282059 1903575029 -6327305 -35192993 -37782275
            -109354013 -135000065 -33313</internalNodes>
          <leafValues>
            -4.7702345252037048e-001 2.7813613414764404e-001</leafValues></_>
        <_>
          <internalNodes>
            0 -1 26 -671878666 -69864498 903661422 -134895702 1940907003
            1968296950 1943518170 1944421114</internalNodes>
          <leafValues>
            -5.3827130794525146e-001 2.6483231782913208e-001</leafValues></_>
        <_>
          <internalNodes>
            0 -1 87 452674294 402198126 1065351133 1073086461 1070246634
            786400462 -1999065974 285203935</internalNodes>
          <leafValues>
            -5.9115874767303467e-001 2.2939005494117737e-001</leafValues></_>
        <_>
          <internalNodes>
            0 -1 76 -1888453635 -19924993 -76169345 -425987 -67371013
            -274738497 -536941089 -1112533288</internalNodes>
          <leafValues>
            -4.1142496466636658e-001 3.5159325599670410e-001</leafValues></_>
        <_>
          <internalNodes>
            0 -1 85 -293671462 2019489021 1702138808 -1129137730
            -934485131 810995055 -1320862468 -184549901</internalNodes>
          <leafValues>
            -3.7315782904624939e-001 3.8964524865150452e-001</leafValues></_>
        <_>
          <internalNodes>
            0 -1 73 -723717892 -604211768 1468389965 -176440227
            -1000704340 -69401470 783379199 245337851</internalNodes>
          <leafValues>
            -4.8047605156898499e-001 2.7941522002220154e-001</leafValues></_>
        <_>
          <internalNodes>
            0 -1 42 -89467808 -1192193563 -134859118 -1217219113
            -1044269100 279998785 -1326046276 -470288417</internalNodes>
          <leafValues>
            -3.7732988595962524e-001 3.3883267641067505e-001</leafValues></_>
        <_>
          <internalNodes>
            0 -1 93 -54790032 -1848353459 -1619083399 -1178633297
            -918057996 -1708071459 -599650184 -1737230738</internalNodes>
          <leafValues>
            -3.8712286949157715e-001 3.1621959805488586e-001</leafValues></_>
        <_>
          <internalNodes>
            0 -1 102 -1493499969 -2002213156 -1375731973 -1478616652
            -505611034 1827940515 1067244029 -1694765061</internalNodes>
          <leafValues>
            -3.8194853067398071e-001 3.2685965299606323e-001</leafValues></_></weakClassifiers></_>
    <!-- stage 10 -->
    <_>
      <maxWeakCount>12</maxWeakCount>
      <stageThreshold>-1.9200935363769531e+000</stageThreshold>
      <weakClassifiers>
        <_>
          <internalNodes>
            0 -1 38 2147352575 -606146049 1040138238 -2147585 -151126017
            -1126827521 2145927167 -50433</internalNodes>
          <leafValues>
            -7.2472804784774780e-001 -6.7882470786571503e-002</leafValues></_>
        <_>
          <internalNodes>
            0 -1 65 1035214300 -105220617 -270565409 -34177665
            -1108279311 -1073766403 -2369 1043340856</internalNodes>
          <leafValues>
            -7.0247024297714233e-001 9.5600232481956482e-002</leafValues></_>
        <_>
          <internalNodes>
            0 -1 4 -10688020 -16674 -1042702351 -136712034 -607256584
            -8589480 -1251607553 1910055755</internalNodes>
          <leafValues>
            -5.2718073129653931e-001 2.2465312480926514e-001</leafValues></_>
        <_>
          <internalNodes>
            0 -1 84 -890575072 -663573728 -773849652 -244121803
            -1069308633 1411818407 1154855120 1359463338</internalNodes>
          <leafValues>
            -4.6093946695327759e-001 2.9383686184883118e-001</leafValues></_>
        <_>
          <internalNodes>
            0 -1 31 486841021 2013117437 -1650977283 1274858428
            -782445571 -36136532 332971002 -339205432</internalNodes>
          <leafValues>
            -3.9276617765426636e-001 3.1113404035568237e-001</leafValues></_>
        <_>
          <internalNodes>
            0 -1 8 1644884914 -24724510 -875569562 -1434406672 380305383
            1776569667 2011558391 1804031155</internalNodes>
          <leafValues>
            -4.6921259164810181e-001 2.5247296690940857e-001</leafValues></_>
        <_>
          <internalNodes>
            0 -1 21 78662964 -76304129 -107017987 1608792023 484736508
            935479643 730544638 1046754262</internalNodes>
          <leafValues>
            -7.2172051668167114e-001 1.5249620378017426e-001</leafValues></_>
        <_>
          <internalNodes>
            0 -1 40 -822153434 -80242926 -1247020611 1916205074
            -1981854265 -571102554 1874853373 303759510</internalNodes>
          <leafValues>
            -4.6758010983467102e-001 2.4834857881069183e-001</leafValues></_>
        <_>
          <internalNodes>
            0 -1 96 -757113326 1343600407 1994652662 282083601
            2015325252 448909018 -657462710 1352663002</internalNodes>
          <leafValues>
            -4.4697204232215881e-001 2.4643953144550323e-001</leafValues></_>
        <_>
          <internalNodes>
            0 -1 0 134457634 724844016 831335104 1070722513 424869566
            1038276084 167364025 -68427797</internalNodes>
          <leafValues>
            -3.8210800290107727e-001 3.1120574474334717e-001</leafValues></_>
        <_>
          <internalNodes>
            0 -1 66 358883020 1861163839 1062993884 -1107609647
            -1073832459 -1111093 986259454 1003822580</internalNodes>
          <leafValues>
            -7.3922705650329590e-001 1.5191185474395752e-001</leafValues></_>
        <_>
          <internalNodes>
            0 -1 51 -1359548916 1199046442 275167419 5287154 1131857909
            1303794679 896334771 271771386</internalNodes>
          <leafValues>
            -5.7825469970703125e-001 1.8252487480640411e-001</leafValues></_></weakClassifiers></_>
    <!-- stage 11 -->
    <_>
      <maxWeakCount>12</maxWeakCount>
      <stageThreshold>-1.8713476657867432e+000</stageThreshold>
      <weakClassifiers>
        <_>
          <internalNodes>
            0 -1 48 -786561 -8912897 -524289 1139863510 -52953089
            -203423761 -304087041 -67899393</internalNodes>
          <leafValues>
            -6.9893354177474976e-001 -1.2218649499118328e-002</leafValues></_>
        <_>
          <internalNodes>
            0 -1 46 -340596749 -571212833 937391383 -472766478
            1936886771 -89462787 -67113029 -336450638</internalNodes>
          <leafValues>
            -4.4533389806747437e-001 2.2740574181079865e-001</leafValues></_>
        <_>
          <internalNodes>
            0 -1 94 -122172196 343887067 -160609571 -1208232001
            -352527180 2118819187 -1999738172 15989083</internalNodes>
          <leafValues>
            -5.2747780084609985e-001 2.1878358721733093e-001</leafValues></_>
        <_>
          <internalNodes>
            0 -1 81 -385882836 1349249558 -478192259 -537659668
            129951719 817096551 1107277232 1369417124</internalNodes>
          <leafValues>
            -4.5695427060127258e-001 2.4315047264099121e-001</leafValues></_>
        <_>
          <internalNodes>
            0 -1 7 -1474053065 540196098 666857462 -1411137998
            -1033898061 220659287 -153099440 -162012825</internalNodes>
          <leafValues>
            -3.0069774389266968e-001 3.6664828658103943e-001</leafValues></_>
        <_>
          <internalNodes>
            0 -1 62 -1376748547 -1141907563 456957951 -105068808
            968228345 -729363 -1074135745 -1364715152</internalNodes>
          <leafValues>
            -4.5821881294250488e-001 2.6210507750511169e-001</leafValues></_>
        <_>
          <internalNodes>
            0 -1 37 -111413470 1886807901 -302040306 511159992
            -532810765 821067623 -176799847 -671890017</internalNodes>
          <leafValues>
            -2.9254278540611267e-001 3.9161074161529541e-001</leafValues></_>
        <_>
          <internalNodes>
            0 -1 67 -1749795564 -1141825553 -3187201 -587772419
            1070593469 -10748722 -1073792004 930034680</internalNodes>
          <leafValues>
            -6.0061085224151611e-001 1.9326201081275940e-001</leafValues></_>
        <_>
          <internalNodes>
            0 -1 2 -80549902 -153673101 -315795879 -787353513 -586822145
            -109991447 -50612483 1474254611</internalNodes>
          <leafValues>
            -3.9732366800308228e-001 2.8074771165847778e-001</leafValues></_>
        <_>
          <internalNodes>
            0 -1 82 -354964818 -1317646738 1033808548 -1748767930
            -1929919154 1275234956 1100820852 1363395982</internalNodes>
          <leafValues>
            -4.9397897720336914e-001 2.2943399846553802e-001</leafValues></_>
        <_>
          <internalNodes>
            0 -1 19 -1898217995 2088004469 -671124880 -337707050
            -289246722 2137472995 -1477672977 2013233151</internalNodes>
          <leafValues>
            -4.0880531072616577e-001 2.8664153814315796e-001</leafValues></_>
        <_>
          <internalNodes>
            0 -1 97 -1041243126 1962882879 -938697734 309633149
            1105127158 1389588741 -1008603986 1364427990</internalNodes>
          <leafValues>
            -4.1030937433242798e-001 2.6918390393257141e-001</leafValues></_></weakClassifiers></_>
    <!-- stage 12 -->
    <_>
      <maxWeakCount>14</maxWeakCount>
      <stageThreshold>-1.6204571723937988e+000</stageThreshold>
      <weakClassifiers>
        <_>
          <internalNodes>
            0 -1 86 -8388609 2071296447 1025228798 1073626878 -85986305
            1008367535 2145328061 -1</internalNodes>
          <leafValues>
            -7.0771390199661255e-001 -4.8878666013479233e-002</leafValues></_>
        <_>
          <internalNodes>
            0 -1 47 -285219292 2104753921 -315688418 1886582366
            -927488604 2127785765 -270534723 -231223377</internalNodes>
          <leafValues>
            -4.6839544177055359e-001 2.1018320322036743e-001</leafValues></_>
        <_>
          <internalNodes>
            0 -1 35 -391141598 1920659238 -6570130 926346484 40822711
            3549927 100521328 1369436602</internalNodes>
          <leafValues>
            -4.4465824961662292e-001 2.2824288904666901e-001</leafValues></_>
        <_>
          <internalNodes>
            0 -1 58 659087357 -13124611 -8726529 -68113153 -406998152
            2008406588 -4441089 -1409536004</internalNodes>
          <leafValues>
            -4.1009098291397095e-001 2.4532829225063324e-001</leafValues></_>
        <_>
          <internalNodes>
            0 -1 80 -587244260 469616876 -300752999 1006169807 -10275
            -1162220839 -1741758774 2096903</internalNodes>
          <leafValues>
            -4.0350282192230225e-001 2.6130226254463196e-001</leafValues></_>
        <_>
          <internalNodes>
            0 -1 99 -1501626403 -1092849729 -1157630497 -1086387236
            99743733 -1242572611 -1648410627 -1342185473</internalNodes>
          <leafValues>
            -3.1311586499214172e-001 3.2322412729263306e-001</leafValues></_>
        <_>
          <internalNodes>
            0 -1 89 -19204188 -263823515 450860670 317110954 601211092
            41351 933338525 -58728449</internalNodes>
          <leafValues>
            -3.3601307868957520e-001 3.1198152899742126e-001</leafValues></_>
        <_>
          <internalNodes>
            0 -1 5 -1943478414 -291310382 1878912507 -1881083936
            -846274067 -637798409 2134338813 -807943949</internalNodes>
          <leafValues>
            -3.5458019375801086e-001 3.1258413195610046e-001</leafValues></_>
        <_>
          <internalNodes>
            0 -1 14 -11075802 1575882660 -203884810 -120546000
            -521713917 369129217 -406970254 1684535091</internalNodes>
          <leafValues>
            -5.8409547805786133e-001 1.7444244027137756e-001</leafValues></_>
        <_>
          <internalNodes>
            0 -1 54 -1683867200 -822702093 1465752015 -1678316430
            -102433803 -234892711 -1103386259 -1946402860</internalNodes>
          <leafValues>
            -4.4584780931472778e-001 2.3253424465656281e-001</leafValues></_>
        <_>
          <internalNodes>
            0 -1 36 927244538 895062990 1360333742 -772449298 1521468410
            1374151624 1434860426 1103706826</internalNodes>
          <leafValues>
            -5.8333587646484375e-001 1.7084813117980957e-001</leafValues></_>
        <_>
          <internalNodes>
            0 -1 49 -268438156 1079000823 730840858 -1698258213
            729772980 1612800230 99039443 -102240265</internalNodes>
          <leafValues>
            -3.3371677994728088e-001 3.1016254425048828e-001</leafValues></_>
        <_>
          <internalNodes>
            0 -1 69 -1643069800 -16991243 -2106543243 -8600899
            1068980698 -1490187551 956087998 -1400052496</internalNodes>
          <leafValues>
            -5.2279275655746460e-001 1.9209580123424530e-001</leafValues></_>
        <_>
          <internalNodes>
            0 -1 100 1786184732 535846857 150726380 -1409818405
            408496212 -638002837 787552560 16248615</internalNodes>
          <leafValues>
            -4.5934793353080750e-001 2.2663877904415131e-001</leafValues></_></weakClassifiers></_></stages>
  <features>
    <_>
      <rect>
        0 1 4 2</rect></_>
    <_>
      <rect>
        0 1 4 3</rect></_>
    <_>
      <rect>
        0 2 3 3</rect></_>
    <_>
      <rect>
        0 2 7 3</rect></_>
    <_>
      <rect>
        0 2 8 3</rect></_>
    <_>
      <rect>
        0 4 2 1</rect></_>
    <_>
      <rect>
        0 4 2 2</rect></_>
    <_>
      <rect>
        0 5 1 1</rect></_>
    <_>
      <rect>
        0 5 2 1</rect></_>
    <_>
      <rect>
        0 5 3 2</rect></_>
    <_>
      <rect>
        0 5 4 2</rect></_>
    <_>
      <rect>
        0 5 5 2</rect></_>
    <_>
      <rect>
        0 6 2 1</rect></_>
    <_>
      <rect>
        0 6 2 2</rect></_>
    <_>
      <rect>
        0 6 3 1</rect></_>
    <_>
      <rect>
        0 6 4 2</rect></_>
    <_>
      <rect>
        0 7 2 1</rect></_>
    <_>
      <rect>
        0 8 1 1</rect></_>
    <_>
      <rect>
        0 9 1 1</rect></_>
    <_>
      <rect>
        0 9 2 1</rect></_>
    <_>
      <rect>
        0 9 4 1</rect></_>
    <_>
      <rect>
        0 9 5 1</rect></_>
    <_>
      <rect>
        0 9 7 1</rect></_>
    <_>
      <rect>
        1 8 1 1</rect></_>
    <_>
      <rect>
        1 9 1 1</rect></_>
    <_>
      <rect>
        1 9 2 1</rect></_>
    <_>
      <rect>
        2 7 6 1</rect></_>
    <_>
      <rect>
        2 9 1 1</rect></_>
    <_>
      <rect>
        3 4 1 1</rect></_>
    <_>
      <rect>
        3 4 4 1</rect></_>
    <_>
      <rect>
        3 4 5 1</rect></_>
    <_>
      <rect>
        3 5 6 1</rect></_>
    <_>
      <rect>
        3 6 1 1</rect></_>
    <_>
      <rect>
        3 6 6 2</rect></_>
    <_>
      <rect>
        3 6 7 2</rect></_>
    <_>
      <rect>
        3 7 1 1</rect></_>
    <_>
      <rect>
        3 7 6 1</rect></_>
    <_>
      <rect>
        3 8 1 1</rect></_>
    <_>
      <rect>
        3 9 2 1</rect></_>
    <_>
      <rect>
        4 4 1 2</rect></_>
    <_>
      <rect>
        4 6 1 1</rect></_>
    <_>
      <rect>
        4 7 1 1</rect></_>
    <_>
      <rect>
        4 8 1 1</rect></_>
    <_>
      <rect>
        5 3 5 3</rect></_>
    <_>
      <rect>
        5 4 1 1</rect></_>
    <_>
      <rect>
        5 5 5 1</rect></_>
    <_>
      <rect>
        5 6 3 1</rect></_>
    <_>
      <rect>
        5 7 1 1</rect></_>
    <_>
      <rect>
        5 7 2 1</rect></_>
    <_>
      <rect>
        5 8 1 1</rect></_>
    <_>
      <rect>
        6 5 3 1</rect></_>
    <_>
      <rect>
        6 7 1 1</rect></_>
    <_>
      <rect>
        7 5 4 1</rect></_>
    <_>
      <rect>
        7 6 1 2</rect></_>
    <_>
      <rect>
        7 7 3 1</rect></_>
    <_>
      <rect>
        7 9 2 1</rect></_>
    <_>
      <rect>
        7 9 3 1</rect></_>
    <_>
      <rect>
        8 1 1 1</rect></_>
    <_>
      <rect>
        8 6 1 1</rect></_>
    <_>
      <rect>
        8 8 2 1</rect></_>
    <_>
      <rect>
        8 8 5 1</rect></_>
    <_>
      <rect>
        9 5 5 2</rect></_>
    <_>
      <rect>
        9 6 2 1</rect></_>
    <_>
      <rect>
        9 6 5 2</rect></_>
    <_>
      <rect>
        9 7 2 1</rect></_>
    <_>
      <rect>
        9 8 2 1</rect></_>
    <_>
      <rect>
        9 9 2 1</rect></_>
    <_>
      <rect>
        9 9 3 1</rect></_>
    <_>
      <rect>
        9 9 5 1</rect></_>
    <_>
      <rect>
        10 2 4 2</rect></_>
    <_>
      <rect>
        10 8 2 1</rect></_>
    <_>
      <rect>
        10 9 2 1</rect></_>
    <_>
      <rect>
        10 9 3 1</rect></_>
    <_>
      <rect>
        12 0 4 4</rect></_>
    <_>
      <rect>
        12 1 4 3</rect></_>
    <_>
      <rect>
        12 5 4 2</rect></_>
    <_>
      <rect>
        12 7 1 1</rect></_>
    <_>
      <rect>
        12 9 4 1</rect></_>
    <_>
      <rect>
        14 7 1 1</rect></_>
    <_>
      <rect>
        15 4 3 2</rect></_>
    <_>
      <rect>
        15 5 3 1</rect></_>
    <_>
      <rect>
        15 7 1 1</rect></_>
    <_>
      <rect>
        15 7 2 1</rect></_>
    <_>
      <rect>
        15 8 2 1</rect></_>
    <_>
      <rect>
        16 7 1 1</rect></_>
    <_>
      <rect>
        16 8 1 1</rect></_>
    <_>
      <rect>
        16 9 1 1</rect></_>
    <_>
      <rect>
        17 6 2 2</rect></_>
    <_>
      <rect>
        17 7 1 1</rect></_>
    <_>
      <rect>
        17 8 1 1</rect></_>
    <_>
      <rect>
        17 9 1 1</rect></_>
    <_>
      <rect>
        18 0 2 4</rect></_>
    <_>
      <rect>
        18 2 2 2</rect></_>
    <_>
      <rect>
        18 4 2 1</rect></_>
    <_>
      <rect>
        18 4 2 2</rect></_>
    <_>
      <rect>
        18 5 2 1</rect></_>
    <_>
      <rect>
        18 6 2 1</rect></_>
    <_>
      <rect>
        18 7 1 1</rect></_>
    <_>
      <rect>
        18 9 2 1</rect></_>
    <_>
      <rect>
        20 9 1 1</rect></_>
    <_>
      <rect>
        21 3 1 2</rect></_>
    <_>
      <rect>
        21 7 1 1</rect></_>
    <_>
      <rect>
        21 8 1 1</rect></_>
    <_>
      <rect>
        21 9 1 1</rect></_></features></cascade>
</opencv_storage>
